0.05531439566917966, 0.08121996971903295, -0.038523242756579285, 0.0028940838142043814, -0.0017784083216745477, -0.0857401640138688, -0.1742258703670354, 0.14426383900486972, 0.05839057441711899, -0.03981239364900069, -0.00037543035266271446, -0.14540308323151632, -0.061325376102006966, -0.001908980785551996, -0.06326218900126829, 0.032953167957997125, -0.002662631779388986, 0.044041996234096506, 0.08503582574237104, -0.008068113235443848, -0.052867408585185134, -0.1104790656208037, 0.02187570898519859, -0.053163053984030484, 0.010081453101152427, -0.02375543673976798, -0.024158965125430032, 0.03596128565916111, 0.015135380126129689, -0.1254577904230008, 0.00907763955742515, -0.03330670789923629, 0.1003460286221167, -0.09505837292626469, -0.028787654536306974, -0.019568053842077684, -0.04064891131389666, -0.024345212989604216, 0.04969081936042416, 0.0608781552349473, -0.09303925965003215, 0.03160933445537455, 0.03706761623845108, 0.06294765934082643, -0.2085077230217836, 0.012974227033883427, -0.007329420955863325, 0.0068823331449444315, 0.12220835943525088, 0.08769208356345747, -0.024832213370263475, 0.0269049044337794, 0.06987911195448221, -0.04296730099349755, -0.04326220517681077, -0.10120246583558959, -0.062047082348938076, 0.10112386272666934, 0.06957362117672256, 0.07664043260559693, -0.026553732809885548, -0.05171429066642692, 0.12089821851755513, 6.213048353857214e-05, -0.018410119354020003, 0.2061016106306876, 0.14320807548616066, 0.05601347177181833, 0.1049544696809359, 0.18318301165287906, 0.2150088192962598, 0.16982133236133026, 0.074667348593649, 0.045691756750503194, -0.03728100466114769, 0.08251809561429982, 0.1639945821060891, -0.012787789922719667, 0.07801094752960841, 0.01134309410588774, -0.10007810884919119, -0.10592498234775274, -0.07788657884837427, 0.006773088631548177, -0.028085873600288393, -0.06379826186834894, 0.06797622345340891, -0.11701687605324806, -0.025344238568837062, 0.020936290524501137, -0.06772927504877439, -0.04009758884735691, -0.05558719024598349, 0.021112200079380885, 0.07432262610612853, 0.22247626282518976, 0.24835115444699069, 0.29305032717051704, -0.04952228637141206, 0.015021466700273184, 0.011692499530663454, 0.19635750691750806, 0.2747919756620226, 0.29141968448171546, 0.07624386833238342, -0.017024463612751797, 0.007413139736820144, 0.007076189137967323, -0.021298700523941415, 0.05555587462680469, -0.038284452508218055, -0.06945992981332044, 0.014321226316959732, -0.02019828130766787, -0.004730685834026882, 0.04379841413256401, -0.15952215953613572, 0.025711183997625994, 0.04385424547430859, -0.11493134231475798, 0.0010054931616625205, -0.18889660520013285, 0.12175195412529422, 0.175389548794825, 0.0590961802389062, -0.36484726984619165, -0.4458764176074124, -0.3497162528756298, -0.34407959322773735, -0.1836643339312307, -0.13416079563433916, -0.026904183555350267, -0.12005202001516539, -0.1118156225374762, -0.14358936248899948, -0.09683661097877803, -0.034018753255594794, 0.004731636732403322, -0.09785779700457402, -0.06657621780533582, -0.013557678602125731, -0.022232952815693305, -0.03280077231066846, -0.04528661674421557, 0.14541749834438705, 0.12452196522456313, 0.018769949363384556, -0.1336005395188456, 0.04296055172566782, 0.06683288960731576, -0.09383044251309991, -0.20588433249653373, -0.2590826520006761, -0.5256513183520491, -0.7484788978100214, -0.7828462822618886, -0.6846117745498599, -0.6500708579654998, -0.2746128099056094, -0.3206998491283123, -0.38742055769227796, -0.5423399461706487, -0.32792645601366743, -0.25857512762820345, 0.0059939341728111805, -0.1710319630288335, 0.01855430289163733, -0.014642140541191484, -0.08932706824463724, 0.03749090436031178, -0.09246329657412605, 0.12122883973445261, 0.2052544669395633, 0.21684257962948306, -0.07438598649495279, -0.003159471697459674, 0.11175284155904303, 0.18476491604455011, -0.21646977305472467, -0.10016504379923742, -0.19242658933709866, -0.28631935063072916, -0.4728133955262524, -0.6327917613806137, -0.5552377335222958, -0.5060084148035213, -0.4341397845285022, -0.46066103028743627, -0.3830216266213438, -0.31320883995498466, -0.37750419700812654, -0.28072033074047636, -0.11255317264971695, -0.03301684370351638, -0.08338038180874346, 0.10022295499013056, -0.09184517665563026, 0.10032887133625351, 0.016557326656348903, 0.11630969366261815, 0.08467655440813218, -0.03526259606932567, 0.18272933524411683, 0.010556786735513453, -0.1623930545715429, -0.21510718131138493, -0.19216758413453291, -0.24742976596306834, 0.014915490105849335, -0.3751202501276678, -0.3346124191344067, -0.372268267574458, -0.5463101591774912, -0.413768671569828, -0.5732273148175192, -0.3198354525006548, -0.23296425513805616, -0.37784382200453365, -0.25054476915175766, -0.4042161145047266, -0.1578482888878789, -0.03756410358947263, -0.1493927755339441, -0.08452699199608456, -0.02972533982893831, -0.12013054300463676, -0.07392993739397893, -0.005318685551115154, 0.19923550841773038, -0.3336881137582501, -0.15065463232503815, -0.33657590598390064, -0.45109947111451654, -0.3737484209789346, -0.1647798261994619, -0.3127223345560203, -0.10387590672992944, -0.5241217788472814, -0.23253597409870141, -0.41721137846248196, -0.48238629656726134, -0.3864964479520334, -0.3602852310094691, -0.31911610137800844, -0.4133244166467515, -0.3382200164414896, -0.3018825647515559, -0.324655510948042, -0.14373021709856054, -0.04629336346349913, 0.0009799071287200111, -0.08247596021253406, -0.10057671421388999, -0.047951963388698546, -0.02841833890104551, 0.03662568079359713, 0.09001443035082617, 0.025015139797754243, -0.23552951001327055, -0.2195931697049226, -0.37090946007258835, -0.3078819751302087, -0.32014472272824174, -0.3716851148165504, -0.4489990743485398, -0.2547301071130063, -0.10563598465273885, -0.3446847471248695, -0.6088975612733438, -0.3752809737786133, -0.1959840730800005, -0.3647892568958629, -0.06790068694888737, -0.12908433644265707, -0.11024393654673677, -0.16895739881016447, -0.2583249440682779, 0.026889644803900884, -0.07929716291782603, -0.009647759407374716, -0.023244259769648012, -0.031501172114961166, 0.006627623667382225, 0.29152075704351754, 0.056354726159572814, 0.10911984469928539, -0.11273242091525143, -0.15092365905651675, -0.3606883890573015, -0.4115837386606192, -0.6342155824509796, -0.5193777890367977, -0.37216172376042234, -0.3186682524042946, -0.21588402521323985, -0.31213506917848377, -0.4506375398782754, -0.30346379829837117, -0.12969794697201997, -0.03765223508795328, 0.07232447298540044, -0.1264781803123172, 0.02872137164498229, 0.09831372925608041, -0.09852623394309593, -0.10663656216046845, -0.07019504664217804, -0.05384864159664467, -0.03478151324872953, 0.09138836336987997, 0.11343088875181676, 0.31176844483052635, 0.31985737252347657, 0.38221353434198657, -0.01926501260367185, 0.050661099967547654, -0.2295470285992766, -0.12766361216236558, -0.27284900938942935, -0.19299129847826407, -0.10227927828145233, -0.15454127924687774, 0.1480009099880765, 0.1457910090275776, -0.13421575103265626, 0.029418693441097373, 0.02431356903615861, 0.07105249984659098, 0.10131987313178643, 0.04345594593872921, 0.037317609551507806, 0.05954289794199784, -0.08509434601273813, -0.062116370051378184, -0.0014745364726302854, 0.08805510160104879, -0.08340808028035512, 0.005969105981992822, 0.0632010176855173, 0.2112790714704522, 0.4555073757844798, 0.28273913042339616, -0.06662272710185113, -0.09967759938216861, 0.025886626083747803, -0.13249737955223254, 0.09361017871172411, 0.3616329518660299, 0.5248055653103486, 0.2530148625894892, 0.4689179930052217, 0.11960982428589768, 0.2263400536084858, 0.21822341474461898, 0.38625429440736053, -0.0037283527201427136, 0.19092213950740636, 0.11921866430629671, 0.22305338325211846, 0.16737011110759964, 0.05122320001723505, 0.00902989017739864, 0.03271763300341498, 0.09117786361807997, -0.09625151564561936, 0.030899486206622237, 0.04707060046490125, 0.09799210312328255, 0.3120499399148567, 0.15553069863654398, -0.1838534095514834, -0.31529149764093606, -0.3456038942472237, -0.09145008968257509, -0.007875667724313825, 0.2559011118151057, 0.46122911575642384, 0.6604826960962135, 0.3870889852385243, 0.17654061166991994, 0.1307049774036801, 0.16010946350929223, 0.20360683116274092, 0.22835359715424902, 0.18322245636788365, 0.058865872366980966, -0.04055216857366343, 0.03177841888931934, 0.14444506907335483, -0.03189292037383835, 0.008807820485006619, -0.0736164434687919, -0.031414133107550785, -0.11894625391050004, 0.07404911830725527, 0.027685298983210767, 0.1765849326365854, -0.16092432863914588, -0.3733603540374773, -0.2823221128303289, -0.2506449761327292, -0.21184420512820745, -0.0798643895305995, -0.12045339719914294, -0.25342389845766256, -0.01238736229281304, 0.025209597097661848, -0.19154283364944277, -0.42281346509882684, -0.1381342682371943, 0.11552503132473722, -0.0384697078512856, 0.35053755376679746, 0.35006688682311426, 0.18220755614604897, 0.3013946216601101, 0.03530027985053753, 0.03747398720205848, 0.032733427298066435, 0.10654078585068771, -0.01207333419302482, -0.036195500694868044, -0.06222453551317276, -0.20366903213601734, -0.1745950137686563, -0.27618120647660205, -0.25792202303794415, -0.4000663345709871, -0.4037050198283008, -0.27263602067753634, -0.21610545692157332, -0.09318335152207108, -0.13168900807499195, -0.3066664570686573, -0.12040341006330257, -0.17673213738643037, -0.17005660716572654, 0.12809008297013696, 0.29526532822951257, 0.0757591912392333, 0.701821729113915, 0.8399159140254003, 0.33823053950997145, 0.0168471468589287, 0.00013557587463018832, 0.007893536809074047, 0.06462342455520552, -0.027396197262268558, 0.01852513861443533, -0.12374982586633719, 0.00319723528546441, 0.017513217410227766, -0.08076813391661422, -0.037346247477115846, -0.1178440374561624, -0.265820114718789, -0.22513231958965135, -0.38363996478016676, -0.5048407438777062, -0.3033368922379888, -0.058045947462085495, -0.21135233604126477, -0.02013300487738158, 0.017211034975352795, -0.058941084685130644, 0.11802525973675218, 0.40516843473698655, 0.5139914319738474, 0.34448338352500246, 0.8655780458690793, 0.561316113227699, -0.01669921643844657, 0.07167417098826752, 0.024703007106786346, -0.08786435053137888, -0.09117566417144916, -0.03831847112661915, -0.12672714729398254, 0.13881484138495795, 0.17383028265565537, -0.004305690636662658, -0.06744995593934203, -0.2618156475006699, -0.28977685806571646, -0.4066330849721009, -0.48024962350619416, -0.5235152908218306, -0.4478323356867071, -0.19862493385453922, -0.014318306349435237, -0.10328798220642539, -0.1864676019338459, -0.03382319559849618, -0.12408567388247153, 0.08036786218984344, 0.1992216527526113, 0.30654408226387564, 0.47899025333811135, 0.3561706075922067, -0.05490049033318484, -0.06949587691795356, -0.08710846015541651, -0.05202096154853496, -0.08796633761957372, -0.07275237509642962, 0.024162635350608745, -0.06355376880509304, 0.009228165053401502, 0.17350626082441395, 0.10151049631930616, -0.433754748259868, -0.5015025631493144, -0.2691882800316022, -0.5531294129997211, -0.5550240573998494, -0.2705223245532515, -0.1111613687328734, -0.1176202916211547, -0.311702166076118, -0.10009580313435643, -0.08866789239671055, 0.10396363828928777, -0.049974561127966624, 0.03175316316684949, 0.08183821010368089, 0.041172486214889774, 0.11046507551954002, -0.13182869446284298, -0.20318844187392046, -0.13410222225767474, -0.03183412282349431, -0.11051477338978952, -0.07487234473402374, -0.07752231551469728, -0.06393128287401871, -0.004488193256624416, 0.2355619403436828, 0.07997067368780927, -0.14011146646060973, -0.42459815421786123, -0.4264540224535551, -0.4505416689962198, -0.447116048523555, -0.5871092271077037, -0.34190806094214315, 0.07627153774281326, -0.10308113562793332, -0.09821002332909022, 0.3276351868913172, 0.2569204142253235, 0.05175432201106805, -0.004398266536329086, 0.16708346179724315, -0.2323091012976885, -0.17458504363551974, -0.27205014462444216, -0.08696482700917961, 0.07138386373562368, -0.055579173434820134, -0.09836717237021246, -0.01292838178767694, 0.050546491359712745, -0.06780495166975099, 0.12445674246277053, 0.00022680990359254325, 0.08275747861778968, -0.14234481242050323, -0.29862222709049013, -0.33741581922624175, -0.1819742807877376, -0.24006595953411689, -0.5868193802346814, -0.4066869952818381, -0.14066788239099748, -0.2583739599417108, -0.1305641606917275, 0.2608008267555797, 0.162360469172666, 0.10382736876137727, 0.03398966555045167, -0.2500396669234462, -0.20177015330280568, -0.29782599097668117, -0.17593474079707566, -0.1091416135128831, -0.04853215472212683, 0.10006297628363957, 0.1832700960400766, 0.006620609323118497, -0.09411214603341334, 0.11515191987900508, 0.04491057066612368, 0.1666889879367702, 0.07379006164159699, 0.08637797606162428, -0.1472961054172939, -0.0576941029248473, 0.07673248707182996, -0.04957567625554619, -0.38657255799767964, -0.3481761928813624, -0.5384192809607318, -0.3437203440694321, -0.39765448742873255, -0.07431055758501472, -0.14550794639794998, -0.22207700560996935, -0.23610403424464715, -0.3802619207228293, -0.41377890810194584, -0.25037079378961447, -0.21822783354522404, 0.04977798065529726, 0.05923793575108166, -0.013049384183790059, 0.02000567869539082, 0.048023476537138725, -0.11010801834946897, -0.09381416992005151, 0.09718013781547725, 0.12936133849768242, -0.038930922118719236, -0.042457841431324105, 0.08517485429624747, -0.03329086233634587, 0.2176049065866509, -0.16573097876454446, -0.5790186031706158, -0.6525706361922907, -0.6450874018477329, -0.6260648249830072, -0.6734118448201536, -0.6118526666385598, -0.3709533818273389, -0.48596772724069054, -0.293496546810811, -0.39707204228559384, -0.4087959532449708, -0.2896723701787321, -0.1397278162962527, -0.01884377983980154, -0.1147550072206896, 0.02999957341127477, -0.01667647605852705, -0.04147186284557605, -0.033150088297010334, 0.19109246387111664, -0.11361446031139359, 0.10115072536760172, 0.11297134164727474, -0.07909651191050632, 0.18053158063131863, 0.05504731977786, -0.027901382725748446, -0.04456040407499015, -0.3551480983646394, -0.5385597034408567, -0.31772371437982927, -0.4085241963757535, -0.46222134428977796, -0.33591957593515254, -0.38004961692837447, -0.3311116711724798, -0.23486120386342133, -0.5102188166284732, -0.38279321182530646, -0.1839153349178381, -0.08783653239892437, 0.022737503440231215, 0.0924744492214797, -0.07187884698796447, 0.10645831139978901, -0.07510533077294543, 0.0066371064171556055, 0.05331461127171177, -0.09944621226934267, 0.1305622802284928, 0.19143783419221685, 0.1544805124158308, 0.25163230897790695, 0.23921777387085413, 0.050678009060784845, 0.16043595761141752, 0.013033257359144979, 0.0091796517263613, -0.13424236851362337, -0.2026208859644063, -0.2154284809940823, -0.23619939252569935, -0.09645833349962968, -0.14153475071984406, -0.23661613889516597, -0.11901959249012861, -0.161012471160196, -0.0666680010654542, -0.09749185558797992, -0.05622850314207593, 0.007434716726062952, -0.021900832165936003, -0.027148860694603837, -0.017310975828088104, -0.07982971200345551, -0.02223613970226039, -0.00651076036514985, 0.07538592910678645, 0.01764438873132154, 0.0032321182555821847, 0.18938960727457307, 0.12130448081577384, 0.12996865231127316, 0.11843527072712218, 0.2200978015028059, 0.22257262355062324, 0.16699844771220435, 0.020037243906554585, -0.02214996829112252, 0.09635919604205156, 0.05798630150609478, 0.08073569214238782, 0.3008390319411831, 0.1501291887974744, -0.10240459841204194, 0.10357465955352389, -0.03566148316038268, 0.015139073861360215, 0.03237616014966506, -0.05939302543994969, 0.02896979523743192, 0.14792032567019348, 0.017466042380546963, -0.14862386709383962, 0.09715519573003688, -0.006330098197070218, -0.05209310137730956, -0.002247130426234152, 0.14357909336448954, -0.07678503679380892, -0.09953037831762808, -0.11122058004248311, -0.11495129203994622, -0.0068313317389736205, -0.04090411218137494, 0.020973701957258204, -0.01043578336664625, 0.0849451064377051, -0.12422723869161915, 0.029223362996045034, -0.05982576367254386, 0.01886515798029792, -0.038566827366387904, -0.02957862223881456, -0.01576409008540811, 0.02968009916601236, 0.08219794313381992, 0.08462026206351016, 0.10534298680758933, -0.07532142576741402, 0.044692429638106976, 0.007397086712700361, -0.11185233177225412, -0.016113969902970406, -0.10122950231088347, -0.04743177475710833, -0.03732440037236025, -0.056953052550834646, 0.022584265747329153, -0.05630196665292207, -0.089241651720379, 0.1816475037604968, -0.08170672949917572, 0.12993238903788137, -0.04213141694213329, -0.1771547211354126, 0.06778148788140749, -0.025988684182513586, -0.03195297655392955, -0.04863856457498349, 0.017895357527520767, 0.037150347411246266, -0.10996656485103204, 0.038891707216831814, 0.07466886538303658, 0.0773539325283307, 0.06164291178643177, -0.09856581498806187, -0.10359954223772268, -0.06683607216148495, -0.00826918501557953, -0.07881276090593965, -0.031192149652659026, -0.02106480035225039, -0.08824935587882217, -0.1470294973983275, -0.09097619592686808, 0.055599084967569885, -0.08969372252271866, -0.05934053328551763, -0.13485686167937264, -0.027744424771260042, -0.025974270358348827, -0.14727532560231799, -0.03760211341013448, -0.1349578837053594, -0.08928150955738254, -0.1368250118615647, 0.06481970718096687, 0.08966164084412771, -0.060940270019855684, -0.007643426144135804, -0.09561258522490516, -0.08651122781379543, -0.07442237768426992, -0.03777458005050938, -0.030368603999609833, -0.13390157700674846, -0.08198336891809153, 0.051437079042781435, -0.057172678602962344, -0.03744967912082413, -0.07866627921252574, -0.03939568905713827, -0.01720256672334045, -0.13146536378389742, -0.13701674436150868, -0.061939053907520455, -0.10258504179559798, -0.13096210210693177, -0.16428943537444576, 0.11988278638455187, -0.09273513961476426, -0.10242663937441537, -0.15380715635609518, -0.10656586663335793, -0.016091240156912857, 0.09359272010524748, -0.09819032249061767, -0.017085876321544572, -0.07482980516098144, -0.002200015167693195, -0.08622808923031013, -0.18071438351467828, 0.05469703294544372, -0.201049759915085, -0.09455394867859274, -0.037199680754294265, 0.03238927394808698, -0.19882559856499432, -0.08925297750521649, 0.010027461835070105, -0.14957647957510295, 0.015326257207098687, -0.1386389385553484, 0.06592502732619196, 0.2775662495634115, -0.022264895650896257, -0.5687319772558014, -0.4719569543097554, -0.37430247625929375, -0.4592643509526522, -0.6055346343661311, -0.3319155067290382, -0.3704955596485705, -0.3057016167101574, -0.03745724835808783, -0.07058146665208058, -0.0362834686749896, -0.04219322083989254, -0.10882937404393671, -0.05988811931205989, -0.15715475426193642, -0.03681964595509029, -0.11221603127760535, 0.001661441932465496, -0.13420726471874678, -0.14221918341818354, -0.1551174995040373, -0.1114003810876153, 0.1111276611867355, 0.03827519473170014, 0.0837566971781902, 0.29451118792855385, 0.39595033108365707, 0.1712365124989613, -0.07874418693469688, -0.12770878365675192, -0.3919584128470631, -0.5885813625810838, -0.8863827952562651, -0.9689249596703389, -0.9641553673412346, -0.4689717532966978, -0.36026081650122144, -0.167540052692499, -0.03659625223752036, -0.05748073504814438, -0.1808794687717134, -0.08489619025709531, 0.014861745501163868, -0.06513503664041448, 0.014974454612524543, 0.056535895234226155, -0.1560026249059359, 0.052468856656123934, 0.15825935129970295, 0.18650847020113007, 0.084676697514843, -0.11376342424381251, 0.40651252488779616, 0.7556803152857088, 0.2965414017703746, 0.10945221822918397, 0.14944580950116249, -0.31060759219189693, 0.32132004564595346, 0.10244843914549114, -0.34355602487282644, -0.3846595019361451, -0.8153242231058, -0.5730627563130621, -0.1766638672360917, -0.3099678611205418, -0.08283849480998363, -0.07363804165648176, -0.24183087875092124, -0.08974261215910358, 0.03183816426611031, -0.0699726246202458, -0.05353531318981105, -0.14115106003198738, -0.3683984991213587, -0.4228974310867543, -0.35575554129706644, -0.32444113134765784, -0.39342837277835696, -0.02159285340991098, -0.24219038149581112, -0.011495225588056716, 0.491492266036554, 0.7649549317456097, 0.07602047191389083, -0.1573985739987559, 0.43028711924838947, 0.5172238604807916, -0.0722993778601885, -0.33414774226077, -0.2207653353173997, -0.40531129780383857, -0.5413135256950193, -0.30976223769606487, -0.1157639288145617, -0.26742101512033317, -0.0986532983607934, -0.12066579057308273, -0.1406846995320839, -0.268365897679465, -0.08316577341209741, -0.2407694319287905, -0.38485162729246425, -0.5460040990229402, -0.624908935165829, -0.7855195757180613, -0.30060777771611896, -0.4048752668855066, 0.08880052469446, 0.359481566428189, -0.1307229025417562, 0.08524774617637337, -0.6557377748007259, -0.3566181214471875, -0.5212777007116633, 0.08385876844161058, -0.0029632034701205165, -0.4359405325274648, -0.22083813299589242, -0.5733436805778563, -0.7202201316945837, -0.40804417340799753, -0.15499106215110087, -0.018603312284359512, 0.06236219242058441, 0.005903447621012385, 0.09855637438659672, -0.10310751955153162, -0.14059900882577148, -0.22724557029142245, -0.387820702322026, -0.48192615196093275, -0.11405056153297448, -0.10338810432403937, 0.3724663123103636, -0.6790856609658836, 0.21885222791278283, -0.11334896854399928, -0.30741411687858183, -0.4451298978807607, -0.08529950838278198, -0.6002165908486333, -0.10287604374637119, -0.26882584111064417, -0.20030146314089464, -0.3138724783566546, -0.24193265475331027, -0.3398195018343807, -0.31669954351166635, -0.5902244898865563, -0.1615093998997249, -0.13404120811013492, -0.0973326603073175, -0.12021609103142443, -0.10474110222628603, -0.18286293793373498, -0.07428013539005852, -0.2155629062645783, -0.4794986492098012, -0.6081388840413406, -0.2682991448693759, -0.2628348779673701, -0.28413737273723794, -0.4219513401737658, -0.098109527175714, 0.10959797369556923, -0.7483954846399935, -0.27337527779900084, 0.18944296207375508, 0.2259622475250273, 0.29837755675431776, -0.33034139772946, -0.8333478584167787, -0.2786014487731306, -0.7234256050982175, -0.3706773442878388, -0.37072341506793804, -0.6986305234335787, -0.28186258577639034, -0.1642180409004665, -0.13285822292109742, -0.13612952805589906, 0.05853844502690989, 0.1301335858777968, -0.0805847670707113, -0.4294712526421585, -0.41586850431954775, -0.31171497880208726, -0.04942423131661722, -0.3490908164782653, -0.21524692740016257, -0.1108934352999597, -0.43418095043533034, 0.13009658199596744, -0.041719780058086804, -0.4799220580293015, -0.517157869678077, 0.6426197452219693, 0.650788875278151, 0.07260699327246026, -0.9711152699715823, -0.38072585349410637, -0.6679073118262092, -0.614863580839503, -0.4669940257349317, -0.7429092410332074, -0.17330010495643944, -0.16855057157447245, -0.02893532546193219, -0.10698811979035261, -0.018246509770751523, -0.07636852663763075, -0.21877281155232514, -0.1802782578480083, -0.24473378799011777, -0.2904121462278561, -0.19322189989002328, -0.05490528245376064, -0.36108056721955223, -0.7472404849623978, -0.42982905898584156, -0.15013790408820232, -0.001989889152594259, -0.9077173188767094, -1.8100862967803097, -0.641716490405335, 0.9951200717769301, 0.7810640799276217, -0.3668622997750026, -0.5247858679115264, -0.8633606969515016, -0.7453990250914012, -0.418427816887833, -0.4767217530402629, -0.24852434435386742, -0.13382770903329536, -0.01013422533784038, 0.027012887520027513, -0.057231681226692824, -0.0713252660345094, 0.033666002666738075, 0.07368348300325027, 0.03538274244341937, -0.21917680912467827, -1.0416101112146698, -0.6743289672653796, -0.9458903795500666, -1.5035805663100046, -0.7229456017687647, -0.302972240130639, -0.2520040979117597, -1.348924607798651, -2.7591862009187085, -1.5626487631016877, 0.5879565559474452, 0.6393266408681227, 0.31399775027272925, -0.6002464835179749, -0.90415220498541, -0.5957362490061685, -0.668158152336354, -0.2619476939611304, -0.0495166572684262, -0.09731871703556272, -0.022678396369947958, -0.023351141951254175, -0.02340169672296932, -0.17538738505808193, -0.03260697593723732, -0.31970716946654787, -0.47932498422399505, -0.9750754341533485, -1.5538844650121164, -1.1413986748001572, -1.6369155626063692, -1.703622907188493, -1.0721069393718805, 0.10017815570401999, -0.28936113275656367, -1.7066164191789213, -2.22357483249206, -1.6631251062715333, -0.010036031214952895, 0.49714375528660754, 0.3365320067559999, -0.07952587573813116, -0.7212352686762562, -0.8393486589911029, -0.4243731912133406, -0.19251182201532482, -0.027467054701687522, -0.12951349850151783, -0.10361512576137015, -0.07691829453691637, -0.09978815551739251, -0.18206900890840283, -0.05766969006639735, -0.2112134744809273, -0.5174600133987838, -1.033694441524755, -1.5432549290033757, -1.307321047796093, -1.0746731857179483, -0.6574414040040999, 0.15356658778320736, 1.165890136482629, 0.23379645389699422, -1.0249867507623438, -1.6927363936787851, -1.5647045350490878, -0.6695165208568991, -0.3041789565458698, -0.11439837508481988, -0.25899357332433826, -0.9411380073688644, -0.5143759042502651, -0.16426808505634286, 0.043144743577612006, 0.1305013721679276, -0.18515378069195193, 0.0719355523673555, -0.021902796387294077, 0.058193747185356234, 0.003049886261488388, -0.0001303093047349286, -0.05542716424545855, -0.4445962656125383, -0.8940707427501077, -0.9372236917588408, -0.6265262680724937, 0.19391813923249682, 0.23853183394761818, 0.5983300644275296, 1.209055334965396, -0.022856025471165213, -0.6422022252817429, -1.6010071640574879, -1.339483885645138, -0.30944191670497334, 0.2025774424237251, -0.3121011928834873, -0.8513691944485953, -1.1417009409288392, -0.6506827058866451, -0.17867849127864624, 0.019005751987682125, 0.04864893786415616, -0.04505165798345061, -0.01566045611524369, -0.11779143152105487, -0.05321887417731266, -0.20456515973976214, 0.04853838885737235, -0.21011273519514007, -0.6402288978963365, -0.8100374782393023, -0.8165917268387071, 0.3002726502657209, 0.9082808547785696, 0.734947423647335, 0.8804521768155695, 0.28370967631828997, -1.2005887755722109, -1.0348165751179845, -1.2568952498778483, -0.7840172197016726, -0.3663334709611552, 0.04004603844384605, -0.7192873846318609, -1.1610481801738433, -0.6358883399933916, -0.43038304473149586, 0.07266540227237284, 0.24475954119310328, 0.12348589318424141, 0.09715360702654215, 0.002531356769786673, -0.039184384139101656, -0.08397430640304557, 0.0038106785248763512, -0.23332769673895776, -0.24815372200402047, -0.4191046042666185, -0.6867806164496234, -0.19256266563212965, 0.6035277993273722, 0.5596191616657736, 0.4592809213863852, 0.6747113632322869, -0.07679897119635891, -1.7197296565262008, -1.7843497879420451, -1.2326818006670532, -0.6869681996491196, 0.10125473951157188, -0.3211769217978455, -0.8180133357435564, -0.6362187885863276, 0.27570162081581917, 0.11286806059800858, -0.1673251068686246, 0.3023894402610311, 0.4063037212310086, 0.14906921946421944, -0.06683585711236674, -0.03228785844877377, 0.04510302088517637, -0.17351540091670803, -0.20718753004902848, -0.44297285081053334, -0.7893434146526023, -0.6464661899036245, -0.2892907691189782, 0.36689413962582057, 0.005076715818171086, 0.820352847113871, 0.3423155443584736, -0.8852641488681806, -1.5953784394266912, -1.2412027427727252, -0.11122100273379207, 0.1953947775756759, -0.047379450565696056, -0.7379598657799882, -1.002215967211398, -0.8672910673199062, 0.12181396871149054, 0.11617453043818445, -0.18699172645069803, 0.21090479513053595, 0.14221849162043138, 0.024757528793732837, -0.010906473642335978, -0.10985904895417331, -0.06689009943408997, -0.10292037058823056, -0.3813154505192425, -0.5785581421310599, -0.7662038038015756, -0.7822600119003388, 0.11441993452934747, 0.4604796572461606, 0.6993272077255757, 0.9606953756722845, 0.1249178122323906, -0.33736224330795483, -0.8081071853324773, -0.07342916921269191, 0.08107133816413017, 0.23137762547624743, -0.35253732067963117, 0.06567194406726133, 0.182432409019703, 0.011879496297614329, 0.45937363077946414, 0.6848922498194688, 0.28084642758735584, 0.3746377446029341, 0.01695126420593465, 0.06348335530706894, -0.05575490307325653, -0.19085462215324994, 0.012351490170685785, -0.100915901572164, -0.400413107425461, -0.8936361265459214, -0.9174952821127583, -0.38857224209189556, 0.23797845458974964, 0.5905209696828135, 0.06836090522900008, 0.5668257368580031, 0.1109443473768397, 0.46818481492659886, 0.32257350774713656, 0.04611495479785688, -0.10047247029066247, -0.514585546656211, -0.7129731023570879, 0.060535482456993785, -0.006763127319918862, 0.06867382836338812, 0.17484251358502734, 0.2315112924745183, 0.14932015335911128, -0.06386764783053664, -0.11208781997906554, -0.033526147106676334, -0.020671557857115493, -0.02858299836270873, -0.03376283533569935, -0.0029702779726770516, -0.19204021072850075, -0.35885689626441836, -0.8866134659209167, -0.4224315937657712, 0.07319439832607423, 0.4387939245545329, 0.20617301022494225, 0.7178721537298834, 0.61714990401583, 0.0018013902246181459, -0.3870346952773964, -0.42552453145243646, -0.6978989570970243, -0.589838064364831, -0.058018977366193526, -0.21108887018195488, 0.20625716507118522, -0.13347507998465202, 0.3823709179871301, 0.08942530583845418, 0.46762694889407064, -0.027006819994355925, -0.09639112508921602, -0.00972798284880363, -0.1749041116973956, -0.05015132932555761, -0.15096389841713945, -0.035585103356995926, -0.18412226368029094, -0.39374483383539854, -0.4826818581151038, -0.8518008233384798, -0.6755555610219871, 0.004417853589385579, 0.41536490693523564, 0.4431989280241493, 0.49920992640418005, 0.024062605250089072, -0.30718506919701105, -0.22923439114042937, -0.28967697571202494, -0.24369616730244295, -0.30206804243773216, 0.11126713678038244, -0.01630803617076084, -0.12370359642865238, -0.036781595535392494, 0.0778606688346665, 0.3054306850964107, 0.1272311135259799, 0.12962836347012321, -0.07054793681797245, -0.19205658211619614, -0.029415710777694053, -0.028417904207943656, -0.014671689815619554, -0.2084682600847192, -0.10445400259533286, -0.053976637665745245, -0.45841905901857827, -0.09373927424486471, -0.18244876122459938, 0.0820881960497465, -0.033810327703330874, 0.5189654753719167, 0.3069129835008057, -0.13321261923026434, -0.31958197668341376, -0.43030744262948367, -0.13440701802184724, -0.17755368585905762, 0.328812020533967, 0.05815003297610967, 0.13589866942945233, 0.3114736948243557, 0.16382577636372006, 0.018051504842076654, 0.1820439595011254, 0.046789242364137125, -0.0299897248175708, -0.05723629917995022, 0.03724528647167726, 0.0038659287804869136, -0.10569292101556041, -0.09508017951141343, -0.1978013115403559, -0.3304968289929853, -0.23769380092170056, 0.08584231216597894, 0.09946975942940503, 0.06267857433513464, 0.24984829048234178, 0.5880314017449523, 0.22260039925463632, -0.6219572030856051, -0.9237710908405257, -0.757318831921543, -0.7475807023836507, -0.3843237194294031, 0.2710809929274545, -0.03177537350944176, -0.18928146245657093, 0.47018437773647753, 0.5127252596746903, 0.12720504029421947, 0.29265158502261546, -0.04931474179077634, 0.1709561368677675, -0.21527295345202868, -0.0991157215315935, 0.04104845831955662, -0.1992728613633744, -0.2208978064681213, -0.29450132675876056, -0.8609806092218397, -0.7078054148771086, -0.8494421164968131, -0.8872687698765452, -0.8583880540614681, -1.254981323105476, -0.9178568038595029, -0.32387942396127445, -0.34943791876741337, -0.6748018250648479, -0.7205533728626478, -0.3550231578209472, -0.5414457366430871, -0.17086213107250833, -0.3449678321223054, -0.2635324776802854, -0.111212896796059, 0.007734038683688665, -0.13493574225859306, -0.06028848122699174, -0.08743138290314685, 0.043861271587404375, 0.006289397000352333, -0.04034163247843491, -0.025294919734036185, -0.013260808840971547, -0.06139213576598241, -0.07048252090636943, -0.21679377126554103, -0.4828361610999834, -0.6588999950894375, -0.7512900815990479, -0.9249736722219353, -0.8052120754924068, -0.6903619497695328, -0.6805110974666125, -0.5182214078792636, -0.7100406256130558, -0.7303192542780913, -0.5407228444790123, -0.5838765481569971, -0.3555490091936347, -0.37047216611265876, -0.05218560411078357, -0.2596527628495884, -0.09789963678914426, -0.10928836334544197, -0.12779819285069247, -0.06357970264594329, -0.11457184607852319, -0.0561124957481463, -0.1616273697812402, -0.0806028145336073, -0.15456766557633306, -0.13498234228544428, -0.07765396983234875, 0.06712648998184814, -0.011137942918815489, -0.005910041817258843, -0.02305122829926198, -0.15444528627072096, -0.3053548743949874, -0.18122824275843294, -0.11790199033531754, -0.27211402187719846, -0.2456352495634431, -0.19760846593747475, -0.21228677422561806, -0.12895579330203089, -0.25506662294602234, -0.10781076545418387, -0.1555035613803817, -0.14723273889214558, -0.015553505550301569, -0.02965691365703324, -0.0636179917283022, -0.1605451735252569, -0.025197331613803345, -0.05984455416680535, -0.1607837801470045, -0.0908023827389114, -0.09265651917946958, -0.11968338677013567, -0.05077632387203747, -0.11664038152752729, -0.0387727792755351, -0.12178323553650675, -0.023682299164009366, 0.06240230867027458, -0.14291685774700794, -0.045740302326673, 0.03314119677734828, -0.06337512955672911, 0.015664614276388357, -0.022872848067333574, -0.11776642574568058, -0.04548192275389981, -0.008111675317220667, -0.05025992439109976, 0.0042609061590340004, -0.08066127211590651, -0.06982766767123515, -0.13671351392969044, -0.07387749591639993, 0.0021949452861751693, -0.005514463886425713, -0.0329410464575662, -0.08319357197051065, -0.13047270625976312, -0.0923164446435407, -0.029124926449699124, -0.053303273605337154, 0.004180910328263803, -0.08293139679889759, -0.0867840249452727, -0.15440280573499132, -0.07814248758573965, -0.022010076692086263, -0.06142256340919031, 0.0470735862622503, -0.10118417747319733, -0.02250440401546229, 0.009742533717178318, 0.049691035576208645, 0.003908931998858631, -0.052030304005582215, -0.06736867875266593, -0.14493180628180613, -0.17925207756079287, -0.022056367133446903, 0.0017027061606052659, -0.14454307607523664, -0.018582052339565936, -0.09010108892662753, -0.006133207311811563, -0.08982018033228094, -0.10845730807773317, -0.1522656066799853, 0.007021481499281598, 0.004245823020720936, -0.15151020530851808, -0.18367586939036284, -0.030030290616615895, -0.12397369709227464, -0.12097341164682951, -0.0055276771666915876, -0.04708433703565083, -0.05071751240783584, -0.011939639921682283, -0.05264330151528485, -0.002158862695883826, -0.16914262340173764, -0.1411288139151119, -0.18233958086651425, 0.0213176510740342, 0.029400771018735432, -0.05548102094032871, 0.03848548137691357, -0.13843675230547145, -0.05215264784684301, -0.14205702722742386, 0.01100242646618872, 0.0031918332485392623, 0.12035962639025875, -0.14688309634383728, 0.010585954009299415, 0.03585952995726225, -0.13635117997203366, -0.038200035219693916, 0.04052275054773679, -0.17568580553672694, -0.0902195257703868, -0.003847572617254557, -0.16451400887336928, -0.03559908686150382, -0.07413861275973004, -0.1661493639461375, -0.1493722493057225, -0.14472196898991554, -0.16955605488736186, -0.058773554865712306, -0.1565128560792444, -0.010738616604917211, -0.004667693121801191, -0.0718239568893177, -0.10197717808764414, -0.018766200690816717, -0.14101659072285222, 0.0005244293271112471, -0.0989607764459746, -0.0835155286706802, 0.009903463058768313, 0.03771329206037785, 0.05031370184367224, -0.039397941516590484, -0.05431132706776362, -0.13997725306339226, -0.11770036774467259, 0.015661214645223024, -0.06719979035779759, -0.20683747563691046, -0.18077648194307575, -0.22024434285027764, -0.3623532671909107, -0.4590422705910701, -0.6420884829359697, -1.0194704239570298, -1.1709740075593122, -0.7877240407888142, -0.4880325606231141, -0.04166899041394168, 0.027889372378993447, -0.000808872766077228, 0.4389118036112788, -0.020899816836079332, -0.08257453711026357, -0.026439042565638702, -0.05477686009243203, -0.028083659475115392, 0.007090777331714416, 0.013143428421493861, -0.05640207070948155, -0.1141398581733571, -0.00666441230111969, -0.032146399202678436, -0.09158980364523475, -0.16122723408911258, -0.1543420111597263, -0.40203690245370166, -0.39878194173755516, -0.17469107399528208, -0.0504266245461836, -0.17299492389806956, -0.09378059296777247, -0.11387995390458099, -0.08223778751150286, -0.2867759773574673, -0.014773381676188913, -0.14254141499303985, -0.11730777540934641, -0.038623707612881544, 0.277000430556938, 0.022849789203095158, -0.26613638674014695, -0.06645826248012825, -0.13610279659391938, -0.20436319763503993, -0.12084943188979198, -0.08584949001343846, -0.038052112356439044, -0.046005210816096376, -0.052431664383650704, -0.08787638732243742, -0.027545987390260797, -0.17733092996198815, -0.5069673208501133, -0.6717270616778525, -0.4307261400946693, -0.20439647308720213, -0.1596674317763066, -0.5722948408260331, -0.5359934627392535, 0.0795224284168479, 0.0475961999256397, 0.02805466115346971, -0.28324368649578663, -0.05720471618830214, -0.3934480071172982, -0.42024391069199885, -0.006937417005007078, -0.09502102599046788, -0.24432780125800466, -0.2794431517128042, -0.1647209455895566, 0.001340965394403563, -0.006920750026622725, 0.026627319409078604, -0.08206891741681775, 0.04330102117705486, -0.12986888663410665, -0.10784802222365142, -0.29766534403227085, -0.421962817487973, -0.6609807827024107, -0.9903238682858649, -0.8754474138777607, -0.09921686725819445, -0.22300851213697495, 0.0491487216374005, 0.05767632760359821, -0.004788035092455414, 0.510726080037181, 0.7445898757893387, 0.7741208231827066, -0.2126693371675467, -0.37182049017753566, -0.6846147336532507, -0.6117489562078262, -0.23636204858439566, -0.26759819116802275, -0.23787243641945818, -0.11188150751231517, -0.08239632592799705, -0.11419237606533601, -0.05627565272249191, -0.03777197605626382, -0.10850065397300304, -0.12506919242932518, -0.03465531427205994, -0.5274980956197736, -0.5038107455202895, -0.8035285006711318, -1.0373084925428337, -0.8548781983540675, 0.22468128291834186, 0.4694941938494658, 0.8840925871440626, 0.7137738613464547, -0.3951778507157775, 0.6572744813557159, -0.28148132504768797, 0.04405037477940378, -0.22798895008785663, -0.30357985624433365, -0.6389545211854861, -0.45988048312679264, -0.20531572738681395, -0.46837385263063935, -0.34338862738397025, 0.03404046232303767, -0.14616073855815848, -0.0009590224194447045, -0.10020235163889733, 0.014920836830208284, -0.13860478485507688, -0.03158588115243352, -0.11763113726322805, -0.3150889921090781, -0.5946906783453033, -0.8252394767424306, -0.9618713015228262, -0.5633995694283525, -0.46853122524332724, 0.1722301484034764, 0.28747099080486693, 0.09932889147721811, -0.1376679838401503, -0.16895893036833917, -0.41429780136543043, -0.7648004090347825, -0.6309857401754616, -0.5622186320571594, -0.5740056248125966, -0.5149756887341557, -0.4882098769374385, -0.35195920902869404, -0.1651240640906437, -0.09133549742129536, 0.01805041476751439, 0.0011413128155258552, -0.11602603099386812, 0.03152101420368583, -0.10550178271830901, -0.07368826957211048, -0.02703122246495466, -0.204365141732946, -0.4482910932620737, -0.599504990129656, -0.4351707985808877, -0.16508639016927065, -0.20755949377124974, -0.7685874273721143, 0.5583237783208392, 0.26678444306280696, 0.5823338912599347, 0.5175531601654297, -0.6363992962568995, -0.7591748878038972, -0.3498433329913328, -0.44280638841208825, -0.2966286007436374, -0.32997818890665126, -0.3955407562309795, -0.2671714845167709, -0.15120283024850048, -0.10341701075265909, -0.12090250480025846, -0.1957329835194056, -0.0776965309136494, -0.0859775377225347, -0.11766266550941543, -0.09730861742678794, -0.1196395422868625, -0.1771939818615136, -0.43612964624904316, -0.6193646544371413, -0.3160957326120299, -0.09938672350057465, -0.2008439822589617, -0.2241282530412588, 0.5385022405200985, 1.056915335907836, 1.2630667290779374, 0.6066862588177087, -0.4144802138160158, -0.6364801103792284, -0.17038930482293965, -0.6029483243042142, -0.6057063045702472, -0.5143018907066682, -0.35033874044832486, -0.1054046829991506, 0.02767668121448605, -0.05652132882909212, -0.06714671713162743, 0.03838605623642573, -0.11075676907888757, -0.11994588611147569, -0.024609825992718916, -0.053174470261351234, -0.058215354185279934, -0.31018523740174847, -0.600508934244555, -0.8007483670982188, -0.8283515054954873, -0.15556395820279284, -0.034213330224576365, 0.16435558510366655, 0.9562495707000916, 1.017807232756576, 0.8856746979554068, 1.4995003954254855, 0.636363071628611, -0.15389151661001554, -0.5152224957977067, -0.7340118041276296, -0.25805289544886295, -0.19004772101479483, -0.1052894848366509, -0.16991571113927795, 0.011479789591729121, -0.21286665010499278, -0.07083689897795041, -0.07082997952120122, -0.06436434742842605, -0.09129873755556206, -0.042197608905643544, -0.02767573302590176, -0.22103872695339463, -0.2179094373364493, -0.4499056648875304, -0.6964534618271283, -0.8012416856141501, -0.5787755242450162, 0.41947826490026674, 1.6455426608816737, 1.7304788089826535, 0.7728527739378493, 0.483088081375321, 1.6391132750191966, 0.19193898361349543, -0.6769733465603842, -0.8351405288659833, -0.5428792358224176, -0.21869926725347955, -0.4963571565729945, -0.21050812484610368, -0.007264286065717064, -0.20170557054253674, -0.18427199170951522, -0.04387824729369434, 0.006007123265921444, -0.20523735262677284, -0.0649982671171467, -0.045015313714503645, -0.05937102333263053, -0.33223287866761164, -0.29965166269351406, -0.36866202285087657, -0.5239847227709311, -0.2323652947133345, -0.703247404734949, 0.10554317580961664, 1.279493287838927, -0.21146259528833175, -0.30575619814216537, -0.6774996634404232, 0.674379704059234, -0.1780210897474613, -1.225283733129019, -1.2795722945781731, -0.5667817581831607, -0.2952531835838706, -0.3175955095307169, -0.3628368103321839, -0.26970492437930477, -0.16828558796476367, -0.1768553787025817, -0.04654057924251251, -0.10786157379995324, -0.12800839608891626, -0.0752304386691137, -0.00034477447172554616, 0.022332854308191694, -0.39018485194740826, -0.5426843662770319, -0.6044018244034604, -0.4191121778877036, -0.00019191618253724783, -0.49720353426119995, -0.6933693734584139, 0.26280592722363366, -0.8250429652640955, -1.009857886751465, -0.3327701392352165, 0.6250552058409623, -0.466039495122766, -0.8775106325344977, -0.7024174570301133, -0.5525681571880153, -0.2671914341219089, -0.26948099149658433, -0.20080885717357466, -0.1637827792678989, -0.0973888680889851, -0.0825202968816089, -0.10881051786163098, -0.11633911257646916, 0.0493577199210809, -0.021791642198389593, -0.017017958004626257, -0.1577534011623466, -0.34296576845319227, -0.4471082229184591, -0.45564196827796916, 0.01976392325029104, 0.29816734060965283, -0.47676418750050764, -0.40607506423248196, 0.2114365599540122, -0.37613832190560675, -0.7456491526604374, -0.3056414400167376, 0.8967123478663283, -0.2277422655364774, -0.6536610358715683, -0.984560513141487, -0.3912501962820038, 0.01079248529120764, -0.13761712324474618, -0.04733823501894806, -0.08098289603402324, -0.2509115670498803, -0.08435567615764523, -0.011836991643203735, -0.11178648439263227, -0.053731032855218214, -0.05979607873365149, -0.0633958846398676, 0.01479118587995929, -0.14105631091343937, -0.49256177003256457, -0.5203149720444525, -0.37947642086000377, 0.10538616411040555, -0.2842925746955754, 0.09425396094070748, 0.15468580963284184, 0.5261550849572063, 0.13469527773816237, -0.6670315264466612, 0.5538090183944447, -0.38932249284685405, -0.801946416366049, -0.3827133371660172, -0.14327961515678486, 0.10361326462506985, -0.09649565733660077, 0.09170303285407293, 0.164495935299559, -0.2566104944505235, 0.00033152632028873505, -0.019670331243871554, -0.06811827815907305, -0.08714014513923245, -0.13811127595052672, -0.03382068531313454, -0.025929124240518808, -0.12204628033264614, -0.29886365412672855, -0.43052099509346536, -0.3623764499898836, 0.1857507998961652, 0.3415129298913918, 0.045257003281464966, 0.8165111618678736, 1.054967514853008, 0.7065572597591082, -0.36091479171028656, -0.4525053441658642, -0.7662418332247287, -0.763263492945967, -0.30136685484367537, -0.28791474394607786, -0.17311901036590852, -0.24922720539674015, -0.06596311902466817, 0.0982911363233377, 0.2990458130553035, -0.06739878721090417, 0.0006813594205394005, -0.1273038170566973, -0.001587444164052235, -0.28097712121095414, -0.14441700473553232, -0.1246447415605758, -0.2741119323115174, -0.3986296011194841, -0.5470428574889238, -0.4197132820842486, -0.04523306417291207, -0.23237186078218527, 0.1686871263095793, 0.29589579880635525, 1.1600562331765487, 0.6184305200735204, -1.0247158975113733, -1.3651400317760174, -0.9202978284883075, -0.6239002600884456, -0.20803077472170817, -0.05980982300777121, -0.17514720961966818, -0.30101507478834705, -0.1473765423741161, 0.014561226273100433, 0.2942627316789265, 0.04338338810743113, -0.05682122412630382, -0.09945178885015153, -0.17960447688138842, -0.04426909533592325, -0.037194186893396736, -0.14924124568298594, -0.28419309126391235, -0.4112039023819421, -0.563713765691275, -0.8827336979569623, -0.7229681918494285, -1.0767798198106668, -0.3504833333219994, 0.38564760689508865, 0.6737705480684052, -0.08463295013874565, -0.834407253204967, -0.8889604394333867, -0.855025400403727, -0.6981545075494007, -0.4519265483070701, -0.21647735290651735, -0.5140078363533386, -0.37172119338741166, -0.14370945453153683, 0.23972247398579483, 0.22160584259767638, 0.0228928037146206, -0.0018203831434774685, -0.06887224668342397, 0.004316268612548751, -0.0735368017840349, 0.08980662926654633, -0.03179455236513725, -0.2589090041069129, -0.384580010401452, -0.8572620745264279, -0.9934544799920403, -1.2550866035636732, -1.598185571696893, -0.8641745245145719, 0.10999488356889811, -0.006957790481148014, 0.1487940252381928, -0.5639461432273661, -0.15679644283643535, -0.6685685572750145, -0.5137479992933071, -0.5436704078463747, -0.16997640931049124, -0.44829500328987276, -0.23087664851602355, -0.033464520247238456, 0.12609832949618224, 0.1382138474490081, 0.05400187950762608, -0.023772424411616266, -0.11461311477975773, 0.003330935567046817, -0.07664052331293719, -0.06655874268242969, 0.07299205462472241, -0.3029758077592663, -0.4917713601870487, -0.7823086537363929, -0.6705837889953304, -0.5213844808092849, -0.853578417818757, -0.3351616681777806, -0.5410812731087411, -0.5139387485904173, -0.17629302757514387, -0.176971705259254, -0.27183821055924506, -0.8359058631951215, -0.09664282030045436, -0.7551184472227921, -0.38663094316688407, -0.30195398245070904, -0.34689391575036116, 0.067857549084982, 0.20183904932597727, -0.022626515235984666, 0.08841466408086938, -0.1515200879434302, -0.0029158241879104303, 0.0064699458403803, -0.034464540967393896, -0.16160171062774584, -0.04879255302337932, -0.09950437304328946, -0.2163046992774365, -0.5396651273897799, -0.2800602921355329, -0.29478682192057654, -0.533501027813743, -0.08198822003064046, 0.1302959716279563, -0.4446598945605181, -0.5597867448614008, -0.3647251386562507, -0.2266017965511153, 0.15446032424223197, 0.5501617374822046, -0.48301500000754155, -0.21033598097971773, -0.0780204201545672, -0.036031316655036456, 0.13682138822139417, -0.060689410771708044, 0.0015256148934195517, 0.02947591682363593, -0.08967786191836948, 0.003955414717045191, -0.14593692349315074, -0.09681593198002257, -0.18335053136424076, -0.07009498130206611, 0.01080076493760457, -0.04763302802278537, 0.010266338197890225, 0.18297664384938403, -0.10684253326724076, -0.026100289279887508, 0.5653866004550651, 0.9506133502816196, 0.5819232811506382, -0.3133401952474775, 0.014620943484848471, 0.07193127261873311, 0.6709911577840024, 0.42008187930483076, -0.4176123848460929, -0.19499167293470215, -0.38386421079470584, -0.13568033759181805, 0.11487628616137337, 0.048755184181193546, -0.03743689985473755, 0.023248700159322597, 0.09321535876079516, -0.0056817970483972625, -0.10596856854473057, -0.0390166820585233, -0.09848905840472391, -0.16687064952972785, -0.033335652479441584, -0.057411872952402826, -0.031670951552420015, -0.011888023671212248, -0.2337817262035327, -0.13137584407419642, -0.6223026301162224, -1.3600934490050545, -1.5842185877794828, -0.7659839076159616, -0.16963090752620338, -0.18979535213543078, 0.08209377180592467, -0.19857079352194087, -0.20785768083436126, -0.1127437765609274, -0.09518959657904455, 0.01818278238363556, -0.002033089236542963, -0.0905106160508171, -0.05962207539362853, -0.028336275802769918, -0.012579834925617412, -0.03397878015069691, -0.12370702581276634, 0.018932176069631993, -0.003562114077612257, -0.08251552127588738, 0.08924572248816429, 0.05094092026487503, 0.00863810573366752, 0.16776819508514568, -0.19166618698430377, -0.44314266349511106, -0.5979727588377387, -0.948689562821653, -0.6714033141996826, -0.28946226144135145, -0.43328830476314867, -0.2587941150941281, -0.24774289390656085, -0.29281507259019085, -0.18027537430924112, -0.08980387129678909, -0.08547769716930675, 0.013790320906298987, 0.07427847480015183, -0.06772502792702197, -0.06874642557592973, -0.07193958510566904, -0.215171340288266, -0.16618605957502125, -0.07006211458197724, -0.06553449620722142, -0.06698580773948619, 0.015663398488827522, 0.07264921550520746, -0.03772263715398318, 0.03270819216265487, -0.263792567056251, -0.30555280844850796, -0.34954947322634755, -0.5424089419403021, -0.12826288690267018, -0.4061487002327152, -0.16529621397052047, -0.08006418544437224, -0.17434489223688837, -0.1751855098489288, -0.13861741533252372, -0.09690913249872268, -0.05487910440670643, 0.02648111639900785, -0.0366410995741541, 0.020647752858268194, -0.09934722496742558, -0.20917993488285486, -0.08520043790949132, -0.025741231094994644, -0.050524704068104054, 0.06511945175745175, -0.11246923625786999, -0.10510881063067269, -0.10284639989848753, -0.05539832049132561, -0.023400981507570733, 0.031137920135274492, -0.23824405814801872, -0.025270636266867857, 0.02212086180389315, -0.027109074199344246, -0.08065183334693168, -0.13934527501495175, -0.0880161261582715, -0.09443719787428355, -0.016431020263348004, -0.12051267549727505, -0.05873581608913593, 0.06876265358039284, -0.18781258758186054, -0.11158235758390762, 0.011384685612367976, 0.03074246958987983, -0.04108698581455651, -0.16680798632915445, -0.1311081088097375, -0.044408976375043194, -0.08113141423449349, 0.12808143184017237, -0.05702981947640551, 0.002683535201478545, -0.017648256462521866, -0.07325982284401471, 0.022302129133429067, -0.07591658345493515, -0.018123536389030203, 0.043454542125003576, 0.014677206069909705, 0.026278734111503207, 0.045853903328022416, -0.017615821507709923, -0.027392973082118025, -0.007539872089163081, -0.08692103640470941, 0.028255077663791518, 0.041218586184578146, -0.03980463683751362, 0.054932055144765984, -0.07745592084970146, -0.027805768030093228, -0.012023916556086707, 0.013292964264716222, -0.020772149775393715, -0.10185107354174483, 0.053515829084250705, 0.13502380454506754, 0.06423225003956895, -0.04829117708536518, 0.09059727761192035, 0.0722362348853944, -0.018551559681509296, -0.00017218792852393834, 0.02858141780741668, -0.08486327711218186, 0.01405552793036422, 0.1647379091644435, 0.019939180519534562, 0.015722515339504597, -0.01937759595818515, -0.033247486618677026, -0.09931265129239311, 0.008538671149826284, 0.01934307745286645, -0.049778606117483575, 0.053477445437496836, 0.08489780588139133, 0.05050539172923878, -0.009043663972942713, 0.008749122587720197, -0.11031876092738688, 0.009774719522076949, 0.05035695454552645, 0.008155155080095245, -0.11799962245955378, 0.07332830077983152, 0.04132295243997035, 0.016439123394134645, -0.020958191817282035, 0.051188484473613856, 0.10868542739313894, -0.07638431190836201, 0.03877383421890817, 0.0867405152185167, 0.18184794719220262, 0.22636111220129387, 0.17230521247366953, -0.09780620386273109, -0.17701416439120923, -0.04140696402596477, -0.13987934926711929, -0.07194796842276623, 0.13223027535658124, 0.04488244351332212, 0.024590417578511832, -0.10183454666615523, 0.09198011095591653, -0.0328726447394325, -0.10123906286365623, 0.09471405800040233, 0.04857088655664478, -0.09306309646736335, -0.08966232022543441, 0.017720732297915872, -0.068410754289122, -0.011363240223146422, 0.12413718036965543, -0.022466704453474637, 0.3048972908001736, 0.1705917476225176, 0.4844838382444669, 0.7799838068926249, 0.5913398484407764, 0.38905912875519766, 0.2571970580998279, 0.12784628493632672, -0.18683865037901815, -0.3457947784628243, -0.19377840972577903, -0.17868455297157046, -0.12739686650325224, -0.30783596863866564, -0.1477986829423136, 0.04656960182754817, -0.01758856912811547, -0.13229688741464035, -0.07373561886286843, 0.019453603389698225, 0.026056547639441655, 0.07087520842621392, 0.0036855314189752366, 0.010481104260987435, 0.006537728678483517, -0.01044825115293643, 0.06620376086058884, 0.26492484393317217, 0.2976328131904652, 0.3332251686986631, 0.25364987375618747, 0.6324465532446181, 0.5548755789554397, -0.17680860573003776, 0.0530597315070551, -0.3188887488996719, -0.7879886627605193, -0.4320340947114224, -0.17222513845974, -0.25605515188488687, -0.18042521877410164, -0.4818565234197706, -0.504879452914107, -0.23690912702225278, -0.22070490745815335, -0.09188740374094401, 0.10024934800805997, -0.021253352953391102, 0.05550972294259211, 0.0802110985660535, -0.05062067579672219, -0.02261855126275446, 0.05710296550788389, 0.051769852769183194, 0.056974329639754524, 0.23592981346595893, 0.25148190279657523, 0.30402103979742945, 0.465813979899754, 0.7842315404968041, 0.5709894106762794, 0.20030785784993466, 0.059730545868734816, -0.03860355838057755, -0.24604844838644357, -0.2760454188505248, -0.1857913826230433, -0.2510478282930037, -0.40709330402225596, -0.6432883697785453, -0.6527162905141733, -0.5554582589605689, -0.3785517479809895, -0.14334195901667643, 0.30453243350786935, 0.2168488341782355, 0.3328695952666875, 0.04542211995132595, 0.029834008435499625, -0.0619634905328795, -0.12276911266185069, 0.17336147972477267, 0.15222785580284726, 0.2570498152739289, 0.23744306513423039, 0.03501486343466536, 0.3636974206145731, 0.35909392521758376, 0.32398634513160257, 0.9484154894705333, 0.48282130900129167, 0.42330640836553485, 0.33598939932433974, 0.04748361909501557, -0.5155658828086431, -0.6826747417481843, -0.7710620714057221, -0.5754111672116022, -0.8320647557259825, -0.6155089757879431, -0.3617310703262256, -0.10247784071299225, 0.16728191226637185, 0.0490520072341931, -0.1405218074090963, 0.002164681332231501, -0.09488595493097081, 0.045179398632854084, 0.020576690080617265, 0.017624667588237962, -0.048290574318424366, 0.27070835136564747, 0.26364954258829715, 0.21745405925488137, 0.17336095714159558, -0.15717720646318223, 0.11504697517593986, 0.5446560239736269, -0.31805832704857334, -0.7194769934425675, -0.783226404962911, -0.7430403456399483, -0.6101280128275032, -1.338525862041187, -1.1446766019258023, -0.6124729582235785, -0.6818724129299744, -0.4180908431558553, -0.21608705307128942, -0.44980959630287964, -0.2701061881813904, -0.07927022902614879, -0.10830437006806001, -0.0057437576745154656, 0.004332071719081792, -0.044233691356489316, 0.015181888860771816, -0.1719352729181003, -0.006938940814507747, 0.1839717716081226, 0.2203650145896624, 0.02964012150168866, 0.10699506930624125, -0.26952155907418307, 0.15409532646575813, -0.29843422219511784, -0.7607840627281318, -1.1840431976795533, -1.6012380556930332, -1.3286558505061141, -0.7185711004582568, -1.0795738367411667, -0.26642313314389704, 0.2972197030723996, -0.24124587395884553, -0.12340978285689862, -0.3943253869185409, -0.5250939061783004, -0.5179754064148149, -0.056532205390394864, -0.01619892489655777, 0.10391996051321097, 0.011677905240922569, -0.002259677254177997, -0.0867921330335089, -0.136264880172603, 0.2076827221338986, -0.07718635900961694, 0.16935445726145096, -0.021805456397108344, -0.37524281287537464, -0.26912529151744313, -0.141767103437887, -0.4810705165652575, -0.9339558634123932, -1.3992194907500803, -1.0185427178413353, -0.6550433424139525, -0.4767411128559934, 0.40994492939776633, 0.6258124560030421, 0.38780562374450317, 0.24818487467133657, -0.3276316394622368, -0.24205421400780103, -0.16494093567255597, -0.29745624967116036, -0.23099203849430147, 0.002110408486862453, -0.0682241361145595, -0.027376408470034263, -0.06657313553511823, -0.11693591548182164, -0.004606431925799113, 0.13000381569813865, 0.0727977225379623, 0.07819936962020353, -0.677131060447298, -0.3492072095708534, -0.24336383430499445, -0.16186077808929145, -0.5644911628447765, -1.0471983003844416, -0.5776183118236409, -0.030137091515407135, 0.6210099135535585, 0.7794612580159973, 0.8647633724286843, 0.49595822682392177, 0.31391596383271153, 1.13579805621428, 0.5021185797403357, -0.00883066847049058, 0.20117202756621289, 0.16306214897431448, -0.12210364181431088, -2.6930722288482447e-05, 0.028040468083581932, 0.03199571449071332, -0.18298068017205021, -0.06000603986463774, -0.20416701638443235, 0.1505932204498518, -0.007323920976909973, -0.29500834472542914, -0.3464778170682032, -0.2810682390068505, -0.2483417272246157, 0.5533524280091892, 0.3936178198393797, -0.6563877219367957, -0.2305866273349424, 0.7245179985709241, 0.8343570045897647, 0.8423558138430233, 0.482621787667805, 0.14872844402019805, -0.0722734666435611, 0.38692894282980794, 0.2948139869254843, 0.25603401817326393, 0.5920907417951049, 0.7686026065789547, 0.0028871240114189006, -0.06466961297855986, 0.17141353262718673, 0.03836544367408497, 0.039162238526640455, -0.01637518422500404, -0.13467121614559446, 0.03580715578788327, -0.19669073416998964, -0.2113450564666942, 0.09499865791499133, 0.0903666876305374, 0.011294777526648574, -0.17235446182465933, -0.24587007834916952, -1.0227408392194486, -0.20791735119662982, 1.3122981813111017, 0.673615309784728, 0.5322681327182097, -0.12940148986893488, -0.19135694472378778, -0.009273077962661686, 0.17005592641660877, 0.13642847986387305, 0.3077637742946594, 0.6987476881904184, 0.4662628498143203, 0.3091135258744923, 0.07239991131338751, 0.14348790401476955, -0.0492494911890391, 0.08387472026752597, -0.12747879342109675, -0.07422445270782432, 0.09055760127532417, 0.24805739244738298, 0.07670137859969582, 0.5211062466140812, 0.1395418242958373, -0.2536399183181916, -0.4558475857954842, -0.701331612214477, -0.7192705564175099, 0.016330513349991856, 0.47008334564099136, -0.05508476666073019, -0.06302532899549128, -0.41844973640948246, -0.5788263299142633, 0.1882923505631375, 0.10173069231062593, 0.10377772877259281, -0.10615841244387487, 0.5907926842659885, 0.3588591520930848, 0.30266110106187877, -0.016296267702153623, -0.09647858878712429, -0.08684774581440932, 0.03385543681285315, -0.1378009665983285, -0.03778466865870766, 0.18239474606781436, 0.26358454929377106, 0.055898767498334175, 0.22427119969101694, 0.20788353753809427, -0.07784598795698514, 0.02462687557169228, 0.05258786297491015, -0.32669157919548525, -0.37169871986576664, -0.3090642203342657, -0.29474405121697417, -0.31518375124899606, -0.3155546383734716, -0.5942724160793297, -0.34465727096714643, -0.0785043228463804, 0.08778014427288654, 0.19547833311321447, 0.16434236457355764, -0.1818865108405018, -0.011122265267260551, -0.04685265001496835, -0.12290239815927684, 0.05123988000209114, -0.06254040335238681, -0.02733483165098767, -0.09857579240159932, 0.14685550066072825, 0.43001733113133395, 0.226330320510766, -0.14886291991784453, -0.14647482083979174, 0.37385259518398406, 0.5458877087361099, 0.5189078259763744, 0.05557768203725171, -0.29979678839747276, -0.08059429726960629, 0.08159067242784913, -0.6085164664911517, -0.5395483994550585, -0.39499027386261754, -0.3420780751262055, 0.2533350652803895, 0.5177656669316149, 0.08428204356285858, -0.20448990312267987, -0.24346780138708815, 0.10636008663731514, -0.07432599245845628, -0.04731263457465829, 0.051268337925419405, 0.015855767391970647, 0.021386352046751368, -0.07035027441067257, 0.07573355422308634, 0.3857520207521615, 0.3470541444924033, -0.12219842313060694, -0.5434303350491287, -0.11692121285477422, 0.020860014967594334, -0.3684405109304969, -0.6987502188745467, -0.08167094996202769, 0.08587600506417532, -0.08234774341375704, -0.30394073576685293, -0.33995616748047386, 0.028866523619497545, -0.05937613309919691, -0.21284461027957555, -0.13387288319541932, 0.015361779264139508, -0.1406547214424668, -0.4024720496734279, 0.020773186106520652, -0.06619518631296761, 0.020624300022628193, -0.11374664470280892, 0.018722106737178272, 0.06683463061167087, 0.0962812352491524, -0.18852230353108848, 0.29209834003234764, 0.14368433914385528, -0.3262071846412247, -0.034322224727296013, 0.011845417329339848, -0.16276735710143106, -0.35672076017262755, -0.3300192728835454, 0.14551259226996227, -0.2151326860921338, -0.38712591907873584, -0.32729631761773326, -0.04132329259154908, -0.2382290287902652, -0.20731700216451796, -0.040427514099232495, -0.4634616485768512, -0.1460855241344687, -0.18726131979387703, -0.3938103835925269, -0.019398788473449467, 0.028534654913769723, -0.06272337156838628, 0.02695111277877712, -0.10404199598028908, -0.0522313914954976, -0.15054757183991474, -0.11981207570307421, 0.10657483444067503, -0.08055323665712653, -0.09698328377212351, -0.026666968518915517, 0.18084446805068266, -0.14959955811821615, 0.07773891310048513, 0.09476378250403532, 0.759497721761541, -0.19743368277873077, -0.15418556875772255, 0.21570785965881437, 0.16540401866571244, -0.2406606169076784, -0.48807635902262186, -0.1544268404892384, -0.23178878163403466, -0.18963112189211165, -0.2535422874022203, -0.017897133436112798, 0.0681405048323715, -0.11513367867821502, -0.1289318246569829, -0.12063328451686736, -0.03045531413354072, 0.18073031054273822, -0.08626530664525055, 0.01704818211071344, -0.09964620070859144, -0.27062764573526404, -0.2675773784661148, 0.3220234108631853, -0.05567975294983205, -0.4076795342772057, 0.18321152678091332, 0.12845369258137, -0.059433320444834174, -0.15788803452887243, -0.14346221243332008, 0.2665215651030877, -0.003979409399391334, -0.4243538426197606, -0.03333961966672994, 0.15837133340917067, -0.5090039219365707, -0.5534783554376445, -0.2644162025173156, 0.2654741788748391, 0.13051398508401824, -0.04027680756101302, -0.03988044887770513, -0.029018855316123842, 0.07153893449871279, -0.033963924107429315, -0.10598919656005103, -0.090914640416057, -0.25714266521041274, -0.25645613460267985, -0.40591828875563696, 0.047129540060691213, -0.044286514767413104, -0.06555554832940846, 0.19740767159901892, 0.2089841903948846, 0.30413838402733634, -0.001495091650902421, -0.18536341458925204, 0.12732689543783746, -0.1667740909992706, -0.413139849173138, -0.6297409465799485, -0.2436064832964127, -0.6740332727012073, -0.4608185182998179, 0.05799202572220428, 0.21768613261853936, 0.10359464244644127, -0.03173164881573148, 0.04585105650447549, 0.030337057314319286, -0.08567682267398126, 0.008494304859650867, -0.19036777123047557, -0.017347761384360758, -0.27366421180776285, -0.3050530907075001, -0.34955425531429335, 0.05216567554319877, -0.05056497978884846, 0.10738963159860217, -0.0845782669076905, 0.16485092148692002, -0.012816051091462584, 0.13103763854634345, 0.08451832539165745, 0.23176500917730725, 0.1920100861478484, -0.060339484396536504, -0.1654609696817424, 0.16480989248621916, -0.19678885848933428, -0.6078286265123777, -0.16000439716650194, 0.15633929902621982, 0.09776514048340798, -0.0008936872711383749, 0.08053435843075214, 0.026790859128495905, 0.043166268714575136, -0.05290464806536353, -0.13090862427016287, -0.10155519791167555, -0.11781114427650898, -0.3856795059716268, -0.17268395103310713, -0.26676594766184697, -0.3197307837231171, -0.3912788093399037, -0.6029764689746876, -0.6354473138820078, -0.5026810875194377, 0.07206038850908968, 0.2179789111893293, 0.6236014519760773, 0.23886393591322924, -0.06491060571421622, -0.21566821323832355, 0.019339601638183376, -0.38534100951029254, -0.3912257462395039, -0.1237642704529981, 0.10893215038348614, -0.11572729238632634, 0.021985280018906993, 0.056277324512607474, 0.1407985210900861, -0.01962723325035573, -0.053700590078387705, -0.14723834095610475, -0.0606470973788568, -0.1273391407317587, -0.24725787183510098, -0.16528007396812555, -0.24937778590491458, -0.27332997707781787, -0.5595408627859273, -0.5884499301858874, -0.7370782273150009, -0.6905199836030624, -0.6074621522116218, -0.5519852918019842, -0.03132193117350739, -0.5297451660143052, -0.4276548765562344, -0.09189546422134535, 0.22851264892804668, -0.05500089720159047, -0.12014262415425939, 0.12478966063366263, 0.08346944260623591, 0.01819812161339288, -0.05457435442088758, 0.1136643384294638, 0.06068707463639349, 0.09178805530181186, 0.04246431042079005, -0.00028541202624515343, 0.06697150768903891, 0.05180117190116986, -0.08130586582715622, -0.05851761740509988, 0.03373177970275792, -0.18275934155218318, -0.07758282405914146, -0.2636414748134262, -0.3349374737969986, -0.5063505279284297, -0.5853723004353755, -0.18507075427356584, 0.2587205786970696, 0.5194435763153976, -0.13837116674878733, 0.3813364787995191, 0.3348104922012309, 0.40944532855236676, 0.12124454698294478, 0.02327790847318235, 0.07398203536713173, -0.06875376902910185, 0.0026055629304087198, -0.025825002427503702, -0.023681025850457053, -0.05946468837666513, 0.1304281585965003, -0.0918167920303249, -0.08526289369341992, 0.08257769342622528, 0.11011100413600278, 0.020174875340404762, 0.08893944853264485, -0.20421835238531544, -0.22098187456255403, -0.36084127035872726, -0.4109336103410102, -0.31780353215955137, -0.3032958941077591, -0.23844124804001968, -0.2421981779601232, -0.02701319904892708, -0.13591709618681969, 0.1232803966137376, 0.4865927041676138, 0.565074232248071, 0.2640909839625811, 0.013410474219150391, -0.1270289237074468, -0.014573926421528587, 0.016281102529924835, 0.047005323751914574, 0.00436829976243019, 0.012378427085500927, -0.022420039598281722, 0.017220866216389685, -0.059229844811816854, 0.04691969948306198, 0.13471960989527193, -0.012643556543024528, -0.024321783743051065, -0.04793940528036985, -0.044558304556037834, -0.05584243513995969, -0.010008229230665333, 0.12691801178471268, -0.020278233417659067, 0.14378442797219168, 0.1269791174484919, -0.07493287604777603, 0.1273789349057982, 0.14534002783661773, 0.21832500282057415, 0.32028567410576836, 0.18225462905173714, 0.1151782851766694, -0.15873057350270925, -0.08211697357634548, 0.054241635109077854, 0.05746904182782764, -0.009430670716605687, -0.01804788155997755, 0.016598683511471285, 0.1308016727727281, -0.046110893392000044, -0.04768189158709318, 0.012950913455648192, 0.06780420124929518, -0.03790177423974448, 0.03184422810490463, -0.04145982813652217, -0.09172461686638221, 0.07440476268086306, 0.037298903951201154, -0.06522513461126282, -0.03809982440778091, 0.03024830366462652, 0.012063881434176612, 0.05651552428312308, -0.028637003879796254, 0.0206169109263574, 0.049713184391465486, 0.036084431141245085, 0.06763118691092422, -0.03556297374467925, -0.002489715026529321, 0.05553472902969474, 0.11705612306586483, 0.003756124304480614, -0.08800710808464975, -0.12986335330383314, -0.04901153331295357, -0.1274096242632385, -0.013629830869578663, -0.10027544903011372, -0.10768572884180737, -0.004846820851737056, -0.044667492114758255, -0.046914282584258775, -0.0912416880908173, -0.06534617838878845, 0.03700119923316778, -0.029662498504164907, -0.14770101984421236, -0.10912323652156135, -0.06328065514228683, -0.12267856241025839, 0.0560215987007494, -0.16885888759615508, -0.023914087111112446, -0.0012275247423920227, -0.2155765333478598, -0.027722309274742667, 0.034211192745969114, 0.030534897783711608, -0.06617389478852967, -0.05259439152169803, -0.029702650023519087, -0.11541632404370787, -0.003791423955859121, -0.12441054179462989, -0.052920763138263945, 0.047148417149652545, -0.1852008904459361, -0.10960713581267917, -0.2059904436521238, -0.21119337010474853, -0.08069163097318376, -0.05370696642826383, -0.13497345056703006, 0.03319904766490091, -0.08109189744117876, -0.03733130166554591, -0.018925455362559733, -0.25836149231941813, 0.10379110373322432, -0.04975584594104892, -0.2609755069712044, 0.02375111581266451, -0.15288678908941572, -0.08175548029924222, -0.1061237048703212, -0.1682683256501415, -0.03503925512603353, 0.012156265897653321, 0.0020421989854673343, -0.07445425240946886, -0.007105753292965494, -0.06311657697978026, -0.08101580889760299, -0.11021029208179, -0.03209414544495231, -0.06550904718530877, 0.016334700937529055, -0.12397542055397104, -0.14977129161688746, -0.1938089192662266, -0.09436027071104411, -0.15934719618309065, -0.15004005509238885, -0.03965836518550607, 0.0160105143677812, -0.04195186572536712, -0.09322754310500728, -0.13191784481317503, 0.04165963932565416, -0.10024032223575502, -0.07171202926855202, -0.17289002704201423, -0.11374993523539252, -0.1428159785726324, 0.0007964001962609475, -0.06448106857888597, -0.029569504383428542, 0.0018152254621064063, -0.05096043324190128, -0.062174585298478136, -0.16558978988306183, -0.035495275380621305, -0.09399598916900319, -0.06436862922122916, -0.0964869949629588, -0.1336567510710678, -0.1575969972570734, -0.2664460985688988, -0.279736666480474, -0.09355597162269762, -0.20935995842146804, -0.2670216740913661, -0.09425046831202984, -0.04001413245846918, -0.053504792307047445, -0.1853831431638205, -0.3104660688948349, 0.0010527401978764489, -0.10524457039112338, -0.10306224868798214, -0.04288961777356085, -0.12358544817274435, -0.19200267352338118, -0.08020165993071697, -0.0006615558421956871, -0.06069553859527582, -0.043370458478410076, -0.09661588924298231, -0.11607555641429014, -0.1164376765058043, -0.35237848441328057, -0.29557193496411543, -0.5574696128848986, -0.6993453868966856, -0.6321610076354284, -0.8420875406974333, -0.8194162340730871, -0.6149722849457352, -0.6832599000827829, -0.7924088687419379, -0.7156061601483992, -0.5127511399742082, -0.5734002107989695, -0.4904704530937108, -0.24574775465841947, -0.174183293689735, -0.11483594213811535, 0.041243622483938855, -0.1416529185362346, -0.14481908947202893, 0.022966245075498236, -0.14663851627308078, -0.027525764037735503, -0.011452122149512895, 0.005870925177674916, -0.11998862014496545, 0.39708693004757917, 0.2435488415666111, 0.29645183127328817, 0.4868257592547376, 0.0450679022273047, -0.09632784812659301, -0.08289334542861723, 0.03964134541435364, -0.305543876653047, -0.7227539529506963, -1.4091897047904278, -1.6697514986787618, -1.7242005654971195, -1.2450382343317603, -1.1639982186867077, -1.1399127594844698, -0.7432187470682582, -0.3657540369578646, -0.38577318520076, -0.03467923351569837, -0.13807923758704266, -0.07334027806899214, -0.030152369068224955, -0.046684436979393555, -0.031775649360648646, -0.16624440422647901, -0.0907261102043826, -0.051014426387382086, 0.6383303056025246, 1.238130431644762, 1.3714938754364754, 1.714045477294418, 1.616982434090292, 1.0465525007266427, -0.06177908998556333, 0.3008696629152285, 0.2802926614929373, -0.044234174203042945, 0.1882067805544835, -0.1354839383757497, -0.48974751607899747, -0.3725633134234176, -0.3822986086562739, 0.1473921038652186, 0.2465156503221318, 0.3562076919492684, -0.23114947593149246, -0.1986721442988966, -0.15988361045490715, -0.29280418587880847, 0.08938780169210336, -0.04996575614026596, -0.12090796909445643, -0.12165551526072889, 0.09597005150014462, -0.4101473860101657, 0.19957145418099687, 1.2536404561257446, 1.8450246760293854, 1.1937105046266316, 1.5558918458867048, 1.9947521017977716, 1.32499103627845, 1.1280916113875576, 0.3146645063126791, -0.46099371738041417, -0.08951983065185143, 0.4742888672932582, 0.3285589551965822, 0.35248787342140103, -0.3346010459297555, -0.20537591597787108, -0.12590767982574452, 0.32382678543361076, 0.20421260589510942, -0.13817614464695682, -0.4041826166016617, -0.139283442295192, -0.031747662779719625, 0.026941958517843298, 0.05318597743749812, -0.23835116281608348, -0.25666776204665226, -0.5010649437282101, -0.23679914079676165, 0.0699135861803233, 0.7849765089263484, 0.7433425401645414, 0.5353421192779152, 1.2560838473889846, 1.4917785066978502, 1.1922321646030272, 0.22181423245723175, 0.9825110981599645, 0.07260453121999716, -1.0415782610610336, -0.1891728479980874, 0.09005305683837023, 0.42689761627809386, -0.3292275963206413, -0.6767441766056225, 0.3835136568777888, 0.4469803743882794, -0.2645513269936008, -0.17888172112139883, -0.23338109103839114, -0.08433428954331385, -0.11765719751291537, -0.09097391758842613, -0.14923960210341403, -0.1816346663106613, -0.6821382762694517, -0.6393086031882068, -0.5881371867401557, -0.04238502162976846, 0.6710110687018425, -0.3249956995918322, -0.5621815625298625, -0.4689807505095028, 1.6324313554476524, 1.8892531090432263, 1.7703380079354205, 0.7539656278626253, -0.946426667857325, 0.3678253690322856, -0.4293114682602436, 0.02661575848577291, -0.8612656120628508, -0.8281733145545893, 0.14233731746776343, 0.2071764021647205, -0.12430011120417388, -0.09242494859575984, 0.01949073402472897, -0.1530803010153038, -0.22303091867335242, -0.17588647655394624, -0.11307366166583699, -0.28119125772533443, -0.3665654183240265, -0.3404248524537794, -0.7039440293186892, 0.01246467904817809, -0.11608640469149399, -0.46033989235126294, -0.9270573983929946, -1.5919676667457243, -1.3243130084754113, -0.46484308588182266, -0.46889406835925745, 0.4667957935960899, 0.1431800704242964, 0.0157936739347383, 0.2360396752923034, 0.02549052731882255, -0.3321379444196, -0.6360062056616399, -0.4510791632561114, -0.49483101880927505, -0.23956737546541013, -0.20298996577871012, -0.14430354241334029, -0.07939023555474264, -0.08664738164241721, -0.08021114951603708, 0.07772517891632695, -0.22377205651119517, -0.6505391663048167, -0.7937852626867811, -0.8409909719141702, -0.28613635180500335, -0.10298026248226232, -0.5363521102240772, -1.0002821326467826, -0.9893002663669964, -2.3362136335252526, -2.04671592702376, -1.6063771645696021, 0.32636957181185833, -8.528994326326355e-05, -0.2912791867192349, -0.17767803618721337, -0.48131881085829276, -0.6034279722416753, -0.9996589607508923, -0.5633255075233805, -0.5265088978808962, -0.2580669706665106, -0.24855835796495437, -0.20316032788508578, -0.08197101197303505, -0.049515900326058404, -0.05130710416399068, -0.028237553358227852, -0.12826998927167008, -0.4287506373177704, -0.6488488901890079, -1.3393146623163628, -1.7166001074440176, -1.1364595295266655, -1.5718240644302781, -0.8793696257333184, -1.7526141233207082, -2.30159122822638, -2.294182963720236, -2.2903419421334275, 0.5647494415003108, 0.5902396868784533, -0.4121787747800753, 0.3458558244791801, -1.293878910823969, -0.41171523593286913, -0.8747385001776977, -0.5903192602295615, -0.4723755859762874, -0.29363252826579644, -0.13772631778895747, -0.23610386512012072, -0.13164682635948172, -0.03405187703661583, -0.04872703258895848, 0.022173939275698044, -0.05526326597764246, -0.7217694118380967, -0.8373024314466303, -1.4395094174927208, -1.8449056541785482, -1.755056796854993, -1.6210326118111273, -1.4730116658012558, -1.0158656086563722, -1.1791666769484943, -1.3316012546116718, -1.388163472414835, 0.7877745362852387, 0.2742753403216484, 0.6978416972106056, 0.2881110602497692, -0.7692711134912844, -0.24887921216070702, -0.035607749101464144, -0.10061048042505112, 0.15337267131238158, 0.17247629375159357, -0.11540237364529583, -0.201287862386317, -0.11348310907635092, -0.04772515448324197, -0.19288312286362602, -0.0813518157487883, -0.0661214659295311, -0.2919828169831605, -0.6123800292408138, -1.032392069227915, -1.1525403415488713, -1.2184041021337633, -1.2600670653047523, -0.6390066787069489, 0.2841016569458482, -0.22286326519531707, -0.9695790008151346, -1.514193545541502, 0.002267792948499775, 0.2713935884226836, 1.1166144657506825, 0.9066982003843421, 0.4063108746976471, 0.4149279302384089, 0.8247147479403445, 0.4025331169296846, 0.3387956645810312, 0.1909191311873487, 0.2023449309704938, -0.10869122996683961, 0.07467032166391646, -0.05336395626297737, -0.11024580634335199, -0.052257937616554874, -0.16468576436752852, -0.028199938884800067, -0.26888702047642676, -0.5197451652963135, -0.37317846511645125, 0.0316549068951795, -0.16939941120416965, -0.19163376989083283, -0.1275403268352331, -0.24844366324710943, -0.8937540250875039, -1.0585789433995945, 0.0008226381675637478, 0.22269610697208572, 0.26586889093977617, 0.17080642367229223, -0.7119889210541163, -0.06425233302060519, 0.988341154197729, 0.5628795706054261, 0.19200409333679064, 0.03888652924910479, -0.10804585400203393, -0.1288687724753613, -0.09194934096084842, 0.023922431262080705, 0.03808286206725679, -0.22109338331929776, -0.2003843073895356, -0.2479410604984476, -0.23821559797308622, 0.21525197806449814, 0.25416478442610885, 0.42780188763789895, -0.17060546389774486, -1.0586189110823747, -1.6200780682440956, -0.826426990190854, -0.27378538380344214, -0.10178976076001432, 0.037979187804951825, -0.5734110103127932, -1.0512774308296227, -0.2741663483982787, -0.11118268811229315, 0.0734202845695579, 0.2263791416620185, -0.12992686250299856, 0.030876774876200413, 0.05538485047870299, -0.3508484969785797, -0.19251533588719627, -0.09841190928506674, -0.11605572900063667, 0.03479423151753649, -0.07621273908143039, -0.044591738653493716, -0.272888774889275, -0.487984899678018, -0.22700132697299974, -0.4908991199832417, -0.4812040335847262, -0.1884715259706944, -0.4284520300605792, -0.41713409737452195, -0.2543869506864749, 0.29497649552597366, -0.01419131712063533, -0.11042799809565766, -1.2762448326565266, -1.2761718896068048, -0.3720597764116369, -0.7132198100102404, -0.678224015988867, -0.8493383428821222, -0.4124477769242878, -0.27998339086040896, -0.1629393215448907, -0.47055658367199277, -0.21449875906755636, -0.06837126062874241, 0.002700985565404562, -0.09663713416647868, -0.06871679397072354, -0.09252626164336435, -0.37764607671317046, -0.6132465528339038, -0.7972750367950252, -0.23059122701054316, 0.19559391666818907, -0.14330848919056915, -0.2904638976432677, 0.5022687643881099, 0.9242798317753905, 0.4636208524536892, 0.306244401247476, -0.5469540949464257, -0.4215485968327212, -0.12733892351402207, -0.12376830155405846, -0.31362290211156585, -0.7677075431609962, -1.3086564021672107, -0.8514158349002371, -0.4281825478813119, -0.15775782152754744, -0.3844355848418136, -0.16641786232106112, -0.025472811754575282, -0.06193823507198888, -0.08197525529999068, 0.07060749021825617, -0.1909836756615773, -0.534945575803684, -0.7735648960241336, -0.8258044810947994, -0.4988504485859401, -0.1164825686976849, -0.0636054261816171, -0.06284204356996373, 0.9921038666030639, 0.36709269958336005, 0.286270788401925, -0.01501897846255904, -0.4693577226419995, -0.19904736511030688, -1.035611323706946, -1.5301486691441923, -0.7125230405468586, -0.6814583251311898, -0.9558767640490469, -0.8617517766784129, -0.3468930272495748, -0.17388916897553772, -0.24045722017655674, -0.3100816545339973, -0.036433620457635346, -0.08069569728555993, -0.12339626175164782, 0.02636932288887741, -0.12287924228949201, -0.34847367731772616, -0.7668246536515406, -1.10509584379901, -0.9384755723910597, -0.42469800714404926, -0.30739092042117655, 0.37374124112999396, 0.2862963994690182, -0.20439720036736608, 0.35771089452671057, -0.1129086547846488, 0.1689385678902299, -0.8022233812609112, -1.4772508831686035, -1.9476127080677847, -1.1033734015545067, -1.0999968409315792, -1.1007344550950606, -1.167791517377682, -0.6145564406123704, -0.5358298021374447, -0.18317733496043592, -0.14007378318189337, 0.03242330821989836, -0.07602439854723989, -0.12365712966065665, -0.14759966178175662, -0.1592112089800555, -0.33247466514286167, -0.8632134664381629, -1.037788494139737, -1.5727193967107669, -1.2434682249746392, -0.9000434081087607, -0.05901227311772527, -0.42186393505639924, -0.1162426942161859, 0.538866276783779, 0.07327709526804878, -0.23965811901146955, -0.7674038254119068, -1.4169822738837425, -1.826230354360767, -1.1046986919679818, -1.1908218705327183, -1.1834274903775837, -0.9624689101928158, -0.7305902085571061, -0.43576470212090257, -0.1528997577803372, 0.06159994712072904, -0.13155805280416621, -0.09813502887690656, -0.081008305571464, -0.03728818912774256, -0.24422385876204683, -0.4552432212350189, -0.48075737942964597, -0.652231519026195, -0.41914421254752166, -0.9989495146605486, -0.8810537053413466, -0.35308981417768537, -0.620660023064926, -0.4763570114377105, -0.25770929530806447, -0.34748376335866354, 0.0706459907665985, -0.3710856634119382, -0.9073961355217971, -1.1049980460983435, -0.730301265845792, -1.0527194144548877, -0.8942844181343994, -0.7572539112100749, -0.702561924197713, -0.32800848718614906, -0.10278422755099031, -0.01540365521703019, -0.2142819949418336, -0.04186472916758375, 0.02907023823467145, -0.2333400735423352, -0.22935294612750567, -0.41237666324953454, -0.13942273122727022, 0.13341071315569775, 0.2333656406354195, -1.2635929607252774, -0.6027780732379816, -0.944790230419292, -0.4854070638520717, -0.639616568551765, -0.16881877489794486, -0.30381459257762305, -0.08758557110269038, 0.13594945630909624, -0.25040675954692887, -0.5026762608896094, -0.43072572197543607, -0.6608897625041554, -0.47835209759756125, -0.53735404738171, -0.5834348647315618, -0.07275999085863132, -0.056255248246131914, -0.12239234823539065, -0.09111830779279036, -0.11883782122277449, -0.12704291532215822, -0.09081976654641714, -0.17329587956346124, 0.011442361782841831, 0.3724153804730229, 0.25098050454295295, -0.47839471154958746, -0.48009752469146655, -0.382169887616533, -0.19921047526183006, 0.32065968801535544, -0.7378284031093072, -0.19666859738275713, 0.5268746585778306, 0.47076298819239276, 0.08971223920065338, 0.3305736570812921, -0.1923160409343136, 0.057129396186186454, -0.1763587995542834, 0.038743107721242065, -0.46451525201681426, -0.3586409178922011, -0.1311078705209067, -0.05046068698499184, -0.18016024300899608, -0.029303612769684788, -0.058952812369090314, -0.07784306296195857, -0.13559746475786505, 0.14017109768231323, 0.3181669849238042, -0.44955084453422206, -0.01480012596579579, 0.22906447145459702, 0.6411125842815579, 0.8571532682259577, 0.206564719627394, 0.28060188092467653, 0.31518893074707466, -0.3012705877141416, -0.16619624710160147, 0.1567459554095951, -0.19812769921726667, -0.28509526908968735, -0.10360033375272663, -0.05759391268586005, -0.05467825352371109, 0.10111490246366939, -0.016248901186403743, -0.2514840600557176, -0.1684955900836655, -0.07505036400112244, -0.07860618562491602, -0.19586589059616405, -0.0825806214277396, -0.006014270544000866, -0.0017836407633788707, -0.12950578029336768, -0.05799826977629925, -0.758655594149873, -0.8123478762247122, -0.2399116807995146, -0.33265836876019167, -0.36408190022788656, -0.6793108279163178, -0.8188652526747239, -0.5919209408315743, -0.054873853143677175, -0.08614783181487297, 0.1594850480591792, -0.19334636319934106, -0.44105210275132645, -0.09683056534421952, -0.0427004695352211, -0.3073862115941078, -0.25796003694959996, -0.1618275876294474, -0.21709065763718205, -0.059390426740096716, -0.03333881633430743, -0.04314104181506565, -0.04115454403544299, -0.14243280271835507, -0.02273974941576258, -0.05789508885358994, -0.09112560924557138, -0.2093203236859177, -0.009514923141088972, -0.10272224286793018, -0.05539857309439534, -0.10592074389122573, -0.02858717283908723, -0.15358728835563137, -0.2266589374793899, -0.16393514370888143, -0.21163643357665562, -0.13692396643325697, -0.10681832855109001, -0.15418310256182366, -0.07393857751389428, -0.06941599378951843, -0.03805698669250205, -0.07879836804855128, -0.09628270689459496, -0.18736788140712857, -0.03613188732842591, -0.10283406328374346, -0.0024016401340746867, -0.07072106006968716, 0.05068006040657352, -0.010955485212962166, -0.022518315623188533, -0.06155063797276851, -0.01592318573261786, -0.15587172947736147, 0.0901231841505193, -0.07082385035155407, 0.01282381856455796, 0.01374208940107765, 0.0012844331394206497, 0.038667038056995104, -0.037643728828212736, 0.059579830040589116, 0.010045632702789804, 0.03793105621876104, -0.1068036318993443, 0.07365095789971064, 0.01977986895056281, 0.04764902176117241, -0.08712916599119477, 0.02205681193544772, -0.02313381388514675, 0.12389259822938, -0.030042977352680307, -0.01184181394902551, -0.06864416994666643, -0.1687239366945573, -0.01378285289062943, -0.06583154706023871, -0.17459110982794235, -0.02668790725267456, 0.0846084287750138, -0.09183782027042077, -0.08032158099079541, 0.009663439799270075, 0.04894373361331476, -0.04680995277304981, 0.02339446774970485, 0.03301774327453476, 0.08898432412781633, -0.032390243090288345, 0.002808878780323744, 0.05642839987959289, -0.11146968952060225, -0.051596377289621596, -0.10158549556607568, 0.05147539054664407, 0.030312015645332927, -0.04256480302805973, -0.09064663285336368, 0.018170539153181432, 0.059304495568438274, -0.0678112339422494, -0.06706863234286221, -0.012442534933665136, 0.022638743483385848, 0.0007463743086344712, 0.1031481326246537, -0.04653798443982005, 0.06526088725990041, -0.11126885366991557, -0.01248836319984672, -0.0014840014248603236, 0.06613711354859755, -0.003605788332840739, -0.021519270690812067, -0.04278421816944806, -0.027722733482961375, -0.11258465990676762, 0.07943237402591201, 0.12374541571266731, -0.08244113979330471, 0.026317998506561132, -0.06313002800714426, -0.0801819134348957, -0.018590940301614955, 0.010768527231409706, -0.11333070531536012, -0.06955857074607694, -0.0934152742812438, 0.032054002845415534, 0.05716229715378058, -0.09916322849774416, 0.04036737882862061, -0.11549819983259088, -0.07240002815167208, -0.022105801008688267, -0.010945290690678372, -0.061157453371438374, -0.01780499460807423, -0.06305710810029594, -0.009900772003322766, -0.007810915024967589, -0.12419023510355036, 0.09966810945334725, 0.0293745815457236, -0.06912111207647544, -0.12746802040218114, 0.003830985285998755, -0.11321347781479014, 0.08942722347838394, 0.03709444551019824, -0.011306029082900817, -0.15185318061950312, -0.07675632341039829, -0.05805979756035369, -0.026887574176325875, -0.04805885227594161, -0.2161632219586608, -0.016486337540971528, 0.12072183057526373, -0.06028420073281643, -0.01603858903481129, 0.05088787698966337, 0.014741731424634976, 0.011566029225798942, -0.09458983231892688, -0.019464413356322523, -0.025788919763909204, -0.13617944491290726, -0.01583634645885109, -0.004480034772103115, -0.014369692642202635, -0.029605284462186673, -0.22827188515335292, -0.019116073124551755, -0.013467433853066455, 0.12757123808714635, -0.006588741242219088, -0.003851449848945245, -0.06964488106350158, -0.016427989493680458, -0.03513798468546358, -0.06378125281988789, 0.023895590491916415, -0.08475969216204796, -0.08569645830767915, 0.07789949190218577, -0.0017853877397182598, 0.06330192544331564, -0.10931467277231458, -0.019816636455291404, -0.018870388372059784, 0.08870200759512907, -0.055978606456639046, 0.09551639828993687, -0.09137343086692007, 0.026607395703557284, 0.09335885040315385, 0.04286420172471385, -0.13035456857613748, -0.10563252395730496, -0.038512421340849, 0.021035973620321582, -0.001754552293738142, -0.2111021190062973, -0.10315406493220025, 0.04204159695741266, -0.0907422142690363, -0.03805907652250807, 0.016138689165163495, -0.03244790251954282, 0.1166501287796979, -0.14193254001017214, -0.04561238130480829, -0.05234755971220656, 0.034710225818235615, -0.0360542413733515, -0.05930097691329986, 0.006135598695264745, 0.1150423756520397, 0.07512948793387368, 0.06397539257429291, -0.049142782111946406, -0.0631299827210681, 0.02473313263233447, 0.02482667441286418, -0.16756951716764085, -0.1072230049142189, -0.0333078803057546, -0.1560618663917865, -0.08603952020867739, -0.3236156290978215, -0.17559458525518196, -0.2919675544127922, -0.13383426371308843, -0.07884975664246333, 0.05085404877217958, 0.0803014446272313, 0.09334249202620912, -0.012297786911520512, 0.015917427491637336, -0.022609400334418286, 0.035912629370544305, -0.007301063216147908, -0.10158432109038532, 0.039461080147544014, -0.005674738952269296, -0.07204477617466067, 0.1862540466787814, -0.027959156662449264, -0.15190584592899112, -0.1432570275366062, -0.12308996304072221, 0.09037894246580229, -0.033931712555723775, -0.2681621876186927, -0.08846496015925964, -0.28702760640504127, -0.22430527974369308, -0.3294840618333056, -0.4169918966063906, -0.33830108656501046, -0.2087906911987446, -0.029475534528517443, 0.008110205494866045, -0.028808216837558305, 0.05134357947947243, 0.012649672177361097, 0.10622402360265279, 0.01587270624098672, -0.0662938073403827, -0.0013993255843126225, -0.09057475165736766, 0.0023908175938563074, 0.01961273714903387, -0.021733250606205488, -0.10213524646285409, -0.007753003486432331, -0.08065550434054622, -0.188723265481537, 0.05255063744133885, 0.0829196337553722, -0.164970690532526, -0.18524898685603083, -0.19473322188142145, -0.17383012545387072, -0.05152143190238845, -0.18911880565144587, -0.20582305024537975, -0.20196893779123593, -0.16654709702293782, -0.15957859949069425, -0.2292134317522507, -0.14117653933027896, 0.06192540841051974, 0.0729708924382768, -0.035281267719281056, -0.05790592195743472, -0.0553817441937712, -0.19796235486328323, 0.0074969191423747165, 0.0285948550380877, -0.1114389868170647, 0.08084652792287025, -0.10588753250902266, -0.1365690601947518, 0.08675034332200186, 0.020552403562996046, -0.057522450971778334, 0.07093087277773388, -0.16758703254693852, -0.1387129227208882, -0.20780311092074225, -0.2396260579312728, -0.1323868815986022, -0.09952958000958534, -0.3244028728530493, -0.22232785676408326, -0.08854787916829826, -0.23937296241689945, -0.06797884667175388, -0.10911515411885842, -0.003963412376186244, -0.03590396717917301, 0.026663838540912397, -0.007943731504208002, 0.088798000366267, 0.04938972481274385, -0.06794095425042043, 0.01088091715290921, 0.025002805269757726, -0.008468905539181814, -0.04117230537693507, 0.1260770969412613, -0.05565163767801205, -0.034020640908609075, 0.06479259059217601, 0.145636743793474, -0.14601232102797618, -0.08501119423244226, -0.10130148337536983, -0.09532321510135673, -0.3236641156680959, -0.18240792641862186, -0.31729133812307464, -0.2071109378704099, -0.3012350466848345, -0.17667938757638918, -0.0975887934973981, -0.24436061512230234, 0.014013911430109563, -0.007353944945756314, -0.000993917845457112, -0.11993311342625743, 0.04279807026091382, -0.08480971347923319, -0.11252571386371532, 0.14754753778649973, 0.02384417307924027, -0.033254438303284284, 0.0007683577179953758, -0.07973051939224643, 0.05567893037521434, -0.054556291676675424, 0.041991141841250176, -0.10421499944267751, -0.040069447912711116, -0.02261695352725394, -0.15526185014404537, -0.26818832577547885, -0.18525959129837205, -0.28278652660717135, -0.3841146656344545, -0.17914581870687513, -0.33092350440474494, -0.34149053111558775, -0.12686567202550522, -0.029881402172959513, -0.09303791722676986, 0.15701749440636226, 0.02290366287352558, -0.1506985694244591, 0.07188339979664678, -0.1206509187966328, -0.08587946233249791, -0.06498244217109823, 0.022908319205950985, 0.024689895776536314, -0.1319893507483555, -0.041538139019872744, -0.04136164790137983, -0.028684413547813595, 0.011982773671799134, -0.07867601126684826, -0.15696387256854144, -0.14431734618492642, -0.1822951111298879, -0.1506119891583345, -0.28294941158839415, -0.19298727301751722, -0.10461368265006184, -0.22331855331155231, -0.22762139129097622, -0.28641852203356394, -0.1779294743597346, 0.00983799534655881, -0.06351916323022545, -0.056550415440223656, -0.043856016385307776, 0.009267968632811862, -0.13927069492406657, 0.06646630426523471, 0.058941403535152245, 0.15622110209110127, -0.08238311297684323, 0.001788714081517174, 0.02445221698042191, 0.042224477024888074, -0.06010998071368052, -0.0032644422755349727, -0.14036847361349541, -0.03517523892446668, -0.082799245126863, 2.9801776394320482e-05, -0.018051129628416054, -0.1735718662076468, -0.09301082341027558, -0.1992477496294201, -0.10674262236356817, -0.2877825951764521, -0.006768547920037045, -0.27290132481794627, -0.1133985163436328, -0.15581181997211824, 0.011290161392602211, -0.11483508319706995, -0.19457480257961177, -0.07141960553668142, 0.11743197291910647, 0.12112845005931688, 0.003501407612554333, -0.03109900765316282, -0.12019620080840501, 0.004202246821055181, -0.05767496520309545, 0.04449662315821119, -0.11061858593727966, -0.08187864687493722, -0.03723702874286427, -0.0652869818515306, -0.05236618975621637, -0.18125167187124278, -0.20831203646540825, -0.041061530082511934, -0.1295583250925907, -0.13238706995573604, -0.07520677930464895, -0.23241297069503447, -0.1577611469138179, -0.13389118675420256, -0.09678159624344779, -0.14049654855175128, 0.013521075918648618, -0.119015831768849, -0.14129383983030136, 0.01593038664998081, -0.045638216807241457, 0.053315027287689706, -0.08056944186919222, 0.08975668810863671, 0.07832101875889151, -0.002393627378261727, -0.02846509877400846, 0.08580602184580649, -0.040841898878543385, 0.03127328904000275, 0.05340597956024724, -0.06391637877677483, -0.18016423078988938, -0.11078260159632049, -0.22949680996913877, -0.19971200354241408, -0.09915989577580268, -0.20781358353127918, -0.16994304522368037, -0.1989985104080125, -0.16988425536716226, 0.040059149341087626, -0.17233030897739327, -0.10229256051264266, -0.0968875070952888, 0.010318055953503952, -0.0789245841189917, 0.1066827785906391, -0.036069389890905766, -0.08289545460569125, -0.06582151274161711, -0.06066472024215732, -0.014643188337692738, 0.0013062973167531668, 0.16308568382726396, -0.0024453693732133033, -0.06411282565094704, -0.04654822366817082, 0.008655369245195154, -0.06275856753420324, -0.13818916417694405, 0.018721007643056464, -0.07660544340430275, -0.2514528244079817, -0.031662101672139634, -0.25300406137401465, -0.10090435885008109, -0.16597230143779879, -0.2478335949207471, -0.14496260584303308, -0.11776411760881668, -0.05522859174868245, -0.02271174719558641, -0.012587516682387325, 0.01750963042201678, -0.07723559321260007, 0.03096342469864336, 0.07403139054272431, 0.11854134976263181, -0.031928944163625954, -0.06588156078305744, 0.034754238395669164, -0.09451242667559008, -0.21136279382095485, 0.061831986633897044, -0.11155830806003274, -0.052241000730513, 0.04742159829249533, -0.021943279511908963, -0.10613243728199394, 0.018498498508357074, 0.00499758203121125, -0.13602048451815024, -0.05005206139375299, -0.15147100610662054, -0.09510715584577782, -0.18932516622480886, -0.23825450185180985, -0.009131884955034473, -0.0847225730046978, -0.13817350235813636, 0.006994500472647168, -0.14052800726197404, -0.11510034762618379, -0.0482775353327189, -0.0688844823559544, -0.1515341730934044, 0.12208772545768225, -0.031237942333050956, 0.012646845169185997, 0.09391384737141867, -0.04884169199324794, 0.028158179811809587, -0.05993483913306607, -0.0477680918879593, -0.11967792461702402, -0.07431637272065675, -0.06405889377310797, -0.23092934235276993, -0.131344182269564, -0.1363220083337305, -0.056167715356985164, -0.04720626974376501, -0.15641129818478025, -0.10220990747114532, -0.11753473398436946, -0.18511332075732767, -0.11679528387433528, -0.05987296648223786, -0.1808165328825796, -0.0726516381382933, -0.050455001484311694, 0.047532538230723835, 0.005561759992637372, 0.04796944754339944, -0.0860518111093084, -0.08546521117151851, -0.09568016232629903, 0.017838144912714293, -0.027064737000820127, -0.03139334442955832, -0.000977597127370326, -0.16990632600037928, -0.21436664595267427, -0.1011018925610497, -0.09691031391484382, -0.18519543243883466, -0.14348209044790608, -0.16578254347375856, -0.13316481501104782, -0.26868449838155367, -0.07721706320907523, -0.10333126039596083, -0.016518350705931082, -0.2939211328606811, -0.10335884840096785, -0.04952761906600726, -0.08285195888637563, 0.10114816704196583, -0.04478548172177564, 0.20916534800884212, 0.01902838630418734, 0.022431490785114163, -0.0397569580501867, 0.14686498888262964, 0.02026544383450457, 0.033527323273900074, 0.03173964642220356, -0.17366830075264664, 0.022272296169668537, -0.13322521847416266, -0.022876825838870487, -0.06903761734154669, -0.06124679673441896, -0.15057876455938998, -0.13197017998300153, -0.06823580313703746, -0.22193601346681455, -0.1801388483035574, -0.16819334906835326, -0.13509576184830727, -0.16957150925575692, -0.14538031454640662, -0.037896879327630514, -0.10867268636104911, -0.01567147458625279, 0.02434732536075065, 0.03704439838152648, 0.009943037356697906, 0.045444243351763426, -0.044263549815793654, 0.11369291360725661, 0.06899940614881059, -0.16740278640348624, 0.052744350098763736, 0.00811141969163381, 0.03937181815470277, 0.05056771593377337, -0.09740241878464585, -0.09716521025854993, -0.05104143854370296, -0.11627022009971218, -0.06100925388409317, -0.15895184359508438, -0.052112297950057875, -0.03664258212188531, -0.16777259183610174, -0.20876057452248545, -0.0932915619296313, -0.05814766695984038, 0.017140001823299715, -0.0083883862081192, -0.043821735111993596, -0.007110527164694381, 0.0032388588735771415, -0.10643312823364628, -0.0418173331079977, 0.11820177511661312, -0.030006110225103733, -0.08654174903183114, -0.028605984769704777, -0.12475125174107683, -0.007795720361646758, -0.019055316821036575, -0.030338939590481565, -0.06019965811543304, -0.0015916686664101526, -0.15502335831988637, -0.1675883753894365, 0.009771153616222047, 0.009844814691972336, -0.11374943524921861, -0.07495540303021521, -0.16235377615412455, -0.010510104286433813, -0.018299157678167137, -0.25643982843674346, 0.09037590799888737, 0.0157946722421724, -0.0017508270912871926, 0.03649215484317643, 0.00391840765881931, 0.03038097422133356, -0.16898603508907872, 0.021828093826690216, 0.012211698051274748, -0.04895906722569019, -0.01827461536737952, 0.0171595910697568, 0.09587695773911359, 0.0690401144241152, -0.10813546924262049, 0.0075754546794202585, -0.10912050904774633, -0.09770532755088844, 0.061150349180378476, 0.02126206074316424, -0.10737559861117099, 0.060869348261726665, -0.062307801665900185, -0.02990136481198829, -0.032184977400764106, -0.08306003050618616, 0.02980029192691718, -0.0035535700430687715, 0.18822539650208311, 0.08739643502420984, -0.014864594900286817, 0.05432511033825626, -0.05407281568152296, 0.028523473692239284, 0.05182063679635523, -0.05714605722376758, 0.04278976680445694, -0.02210422974204456, -0.07008784105770043, 0.042309259776965785, -0.0395310505714785, 0.043357123620311334, -0.04987445535699346, -0.1351162504524434, 0.04091064597196567, -0.07289112395947592, -0.12530239171211985, -0.14529300700483908, -0.15941068005894451, -0.1488309796608352, -0.1730825499031945, -0.11655269037673979, -0.11294144174955162, -0.031316859415584535, -0.011077841876823646, 0.10821806401682044, 0.016775594381006932, 0.04560668164842454, -0.08819584365534201, 0.04446480423362551, 0.04822476916070273, -0.0532567433833005, 0.020721726945982403, -0.005867000912295861, 0.029344199343153306, 0.025464114658920248, 0.04067266415158942, -0.02240398236466752, 0.029346760287093383, -0.01676169151827559, 0.03149078548999868, -0.11735428670834859, -0.09260004505506593, -0.01758970517140274, -0.13191279869462577, -0.13073962153885332, -0.087374710300869, -0.12132269866261809, -0.26100334373061324, -0.04953618243864551, -0.14172280656676262, 0.016357456519341906, 0.06921326239491346, -0.0839873114898273, 0.020985204530282492, 0.03953254262487756, -0.04132573909351192, 0.14613566883242415, 0.08221779163246026, -0.10429444357084307, 0.047471005610249126, -0.11394354638856653, 0.0958593076902642, -0.001241704926111907, 0.024925686192270285, 0.05136958550927584, -0.024504945838308125,